{"layers": [784, 128, 128, 128, 128, 10], "weights": [[[0.24731259293628033, 0.7976958261014229, 0.9614952197571663, -1.0440016942767967, 0.38514320051009504, -1.5371843986618494, 1.562709361014469, 0.2790875890960941, 0.11898854362146544, -0.8725916255412643, 0.6209970041836275, -2.320202007592253, -0.8351726232702802, 1.2649212468466318, -0.03374058482852685, -0.7551250761649052, -0.9831334256752499, -1.0937558532643101, -0.5291861751067584, 0.062351571370287844, 0.6079824780961698, -0.6206919327478231, -0.6716188294299918, -1.1563032671579163, -1.2320291892056345, 0.8305748498701643, -1.090351840640081, 1.032577365076878, -0.011219476951422882, -0.5449039597067664, 1.3125777198363457, -0.30912555498110467, -0.6964307295313337, 0.2059273619100598, -1.8820000868350122, 1.242073819714855, -0.9874414759623196, 1.5789572604933224, -0.5718082209232416, -0.37988989590512245, -0.5808512995839121, 1.1851483415487465, -1.0464314056620077, 1.7768638968107775, 0.5990814577270852, -1.1387199054829267, -0.2148270330167046, -0.12470823734100293, -1.1683783484391457, -1.58234663604778, -1.3694944842689618, 1.1234214548075223, 0.17964347484386473, 1.364554624914486, -0.22276537244923642, 0.7634334410323368, -1.828521743902919, 0.7916574775825804, -0.7132393923020129, -0.33200601934560414, 0.06806493861738934, -0.2217840424794448, 0.5335566941279509, 0.15641664782496909, 0.20173123315944427, -0.2921855382072937, -0.08610672538172463, 1.2708057404332092, -0.7723977187624572, 1.5432660032052992, 0.8817179996074201, -0.5086746741361221, 1.541655098833308, -1.0794462975779788, -1.7520282165413188, -0.28621612057967316, -0.5063124688618125, -1.0927222223408828, -0.579820864814674, -0.12014932693300581, -1.2965353503768122, -0.06974791503169377, 0.3163704059828762, -1.0672522868071344, 1.554697077107864, 1.2888505017973901, 0.23993171841434413, -0.20989575646276, 0.14402736217128534, -0.5182610806023125, 0.11459667660559927, -0.8618312123838032, -0.3269592765309249, -0.08436937773551575, -0.38848734507351035, -0.4150949659934069, -0.4862901242176594, -0.7897925505843942, -2.302436713549958, -0.2482971956600843, 0.9007260585913307, -1.0589011018992394, -2.367868679505226, -0.23664290188529313, -0.7595987842647514, 0.4479079746903889, -0.3420989803704691, -0.5609177588443223, -0.8676479409622703, 0.019826051766849418, -0.7432329383451093, 1.5808328183531373, 1.4583665595750406, -0.9304701438765535, -1.3495870650559671, 0.4543289354393764, -0.022392146524921126, -0.017239470240595193, -0.4524941294787064, 0.8211318254120162, 1.4478514548994845, 0.120291626739605, 0.5925471182035119, 0.49617844709597936, -0.18621414571216346, -0.14777851459983313, -0.34025247532649666, -0.9559282100892967, 1.886821958663377, -0.07628112397978934, 1.848079289807524, 0.29269148204161627, -1.324330653660282, -1.093190415295521, 0.855134348536784, -0.9026443651450584, 1.9626515274725056, -1.0247642364087133, -1.9462972148007611, -0.2587647683458025, -0.024229064492810443, -0.9518188712466006, -0.6581138191030028, 0.33369330738824343, 0.06186176785121631, -0.5112707169689703, -0.8712827127439713, 0.14818094798183767, -0.4759557511002907, 0.6877609685052095, -0.846740373769569, -1.0901121731411145, 0.0817571189786707, 0.31068160540157636, -0.17869347968766014, -0.3835106787220418, 1.2502193655550253, -0.28938452994677255, -1.3997386441853898, 2.756525514794333, 0.17477894956201714, 1.0181853159121756, 1.3029353901992011, -0.3577008280002214, 1.783332442845228, -0.172406916643175, 0.18911406510955384, 0.9005455265822113, 0.6155066191701054, 0.5553001837990036, -0.3936422334046504, -0.6060083841163069, 0.1988800443740294, 1.0746492555159488, -0.6659995898314095, -2.01300200951646, 1.148359433584452, 1.2905083929208072, -0.04603930007382167, -1.4571006411565173, 0.7648750165703566, 0.3433488530585079, 0.10154382264117474, 0.17696759366604267, -1.6010174335216067, -3.1887137563232675, 1.060757920462116, 0.12268746648258785, -1.6029390064500535, 0.37271451242930587, 0.7485020411292708, 1.5417814509626062, -0.11269030286648925, -0.2426451675913196, 0.011673441010058194, -0.9829849700824852, 0.37289076862373344, 1.0862611887654725, -1.581110330808869, -0.3682693463055349, 0.9685617815129683, -0.20232588626960452, 0.6283874001369895, -0.03206969560507506, 0.787459767617382, 0.1997083279565862, -0.7878600903704378, 0.9578504527907554, -0.3339290024060445, -0.30708551774940374, 0.5047468655675614, 0.5359454973938444, -0.2188357211180463, -0.23897696483932537, -0.6760416220592104, 1.529680200816759, -1.3924285584729899, 2.670085573285855, 0.48930299923583837, -0.8165489523515658, 0.847542575405087, 0.8253004773789185, -0.6901424508849422, 0.313323893498409, -2.024089294058873, -1.7188073255550813, -0.17131977895671183, -0.13854258636543168, -0.8005602831188448, -1.0749084132962596, -1.0631282484924311, 0.9197309252847198, -0.00705130780115483, 0.5240659384946477, -0.10254444066424623, -1.4537770621729358, 0.18634848827809922, 0.7755075456726477, -1.1095592215789232, 0.11718070744006798, -1.154787429668456, -1.6201991874323745, 0.31681290158889164, -0.9469197282426857, -1.1320320315389563, -0.8699521934489851, 1.6905013787714849, 0.048306232949377206, -0.5899995484462914, -0.47803693018292315, -0.31492308063294766, -1.3492751148305255, -0.33388251872377867, -0.19716577386368317, -1.4768309354212386, -0.22212242073640856, -0.8293738386082126, 0.6399122911575771, -0.14146545824579787, 2.5193030451816067, 0.2065000979044592, 0.2751714656937529, 0.4037705065822211, 0.6597340373978104, -0.2297895108481471, 0.6675108231618847, 1.9046492881477879, -2.2953557804536118, 0.9190219984680474, 0.8671063872999416, -0.5067237263590718, 0.7608914087902877, 1.3073632018514956, -0.3047002777004344, -0.7200504749880154, 0.2837399384760522, 0.5845876447085132, 1.868297688271955, 0.3049109738358626, -1.0267585482135055, 0.7269903869209625, -0.7225025788964782, 2.033384801575838, -0.6937600126412555, -1.1105984252763175, 0.05550751908097113, 1.5333477439012184, -0.23977934561177364, -1.1276496222128047, -0.7489652028655835, 0.76757311674107, -0.01912989204399176, -1.3337460782849992, -0.6447179383475296, 0.9019123509951316, -0.026103821813904835, -1.3185922363734501, 1.6765622399498237, 0.6084567484404215, -0.51396864592212, 0.6739314068189316, -1.4104020746806427, -1.099702933736723, 1.2364855482971115, 1.304495436698432, 1.162896048803604, 1.0257402824785853, -0.46640750140949006, 0.09797626057660166, -0.07385690701459226, -1.7717666294542127, -1.1888919312856943, 1.4623812348700511, 0.2844235952413123, 1.0583568700018553, -0.2284892236523028, 0.16078710071445973, 2.424451126226837, -0.4956885220684164, 0.38121133447608246, -1.462234389349296, -0.07559056579841505, 0.7813976735773656, -0.8788916605824078, 0.2984593914078718, 1.2666116787184707, 0.4230520650990864, 0.878916994057863, -0.21138257202137004, 0.01951292914505669, -0.09132369916728303, -0.7160834282591861, -1.0828351329341115, 2.068332962635952, -0.38742201249012814, 1.2842844453835143, 1.8075428820836181, -1.046626749491947, -1.2684183795528292, 1.04847263598345, -0.6200566563114461, -0.07489874555291073, 1.4145737094759956, -0.47455418084459466, 0.24040285415878687, 1.8938647281820238, -1.8385446292429048, -1.3266179200514545, 0.29944839861563444, 1.628554072825358, 0.24647707048604534, -0.4586089622802724, -2.9814830739942138, -0.11108109964130736, -0.8226104308947069, -0.6323479328487535, -0.167789042945448, 3.6461268761286485, -0.8971195023838403, 0.1466866769058216, 0.9154167110494162, -0.07188996475111668, 0.5258407051757955, -0.26404079142631137, 0.06391275669319879, -0.4276416944014008, -2.1977150182165217, -0.08685946523967865, 0.3420532281964254, 0.0616575268415709, 1.8343329756416296, 0.8764387906769942, -0.27318984853981165, -0.33820761544408384, 0.30389295140595374, 1.7551454718153325, 0.3680387363758482, 0.6238509082419996, -0.3524500878638638, 0.7878672108594, -0.27014745949314567, -0.9568882537237197, 1.6758957224072883, 1.3278062746314687, 1.512901290953369, 1.191423569621758, -0.4950699416956982, 0.48104756400015475, -1.2861394132192228, -0.3684288386057585, -0.8101652428580023, -0.5000918458428851, 0.6012256497655805, 0.46059897566530755, -1.6641591166501477, -1.4174632013800865, 0.10281764885067965, 0.20819717741790347, 0.933202692456624, -0.6331000056875369, -0.8605141820253155, 2.045718247505498, 0.45543316492167496, -1.1145521174178252, 0.3681427126536686, 1.0342537890575336, -0.10611451263978744, -0.4947389764691677, -0.3557005619410291, -0.9958540697428925, 0.08383321238210749, -0.0026352014954032815, -0.4463849997947209, -0.27741059632186127, -1.5289087605468503, -0.9561961081430913, -0.18333932161292643, -0.44312475077279023, 0.15169378766453456, -0.23466005160115433, -1.3652389555081303, -0.15965379691013568, -0.12495543433300722, 0.09373905318832061, -0.2506277834883976, 0.04192218484952875, 0.33659772574799635, 0.13675437296168633, -0.4052481437431077, 0.10389788465356754, -0.3676350700169037, -0.5885112041707803, 0.14648538074643996, 0.6663276394102929, -0.3429434865767542, 0.23682304221953535, 0.8423509204541317, -2.153040499129317, -3.5120027498472104, -1.0407662804977358, -2.373170125914231, -1.1247167349549156, 0.04772763230712962, -0.5151421911681269, -1.1066015773586957, -0.8038236563191916, -0.806895641467201, 0.1466456999225621, -0.10780647216590704, -0.4431427850268017, 1.5226782111668953, -0.6907932853780298, 0.20196411972063272, -0.2976401570320461, -0.24399138866402692, -1.7702553031003287, 0.14481161243578677, 0.11013384598031314, 1.4028616327063206, 0.4305104077494471, -0.2819302481037796, 1.3616354563704, 1.309552732881987, -1.0352985552418812, 1.0761690359532439, 0.37562572711402215, -1.6806740366625337, -0.20236527914499217, -2.731340714540758, -1.1017056660099656, 0.8699211701054755, -2.136402556575508, 0.7048348445056596, 0.9514078043530119, -0.9875514800531459, 0.1667643405692471, -0.05023829894692245, 0.1715003698180643, 0.9952201422393575, 0.3321487414426477, 0.30085735535548097, -0.8842276436120572, -1.0203792504437668, -0.42263249264462305, -0.46134230215454564, 0.8306207345305263, -0.3404089464961898, 0.5261224372775005, 0.44822884516672207, 1.4322959852304957, 0.20536732315221304, 0.2938416372907146, 1.0798651528251084, -1.4237940309304502, -0.004985610670903932, -0.41461941535475466, 0.4573582741951044, -1.9255738700467466, -0.7553516699872477, -1.352409600058841, -0.7772160463659337, -0.20274051325198983, -0.8493644464705038, 0.42774554613730786, -2.341784648307839, -0.5320616221426462, -0.9402218621303619, -0.8795329549987134, 0.6478042632300397, 0.8557082509241628, 1.70932931042406, 0.578669319239211, 0.33612799106639374, 1.1210557481360686, 1.6361581302485284, 0.9343984740409688, 0.6082171670696667, 1.627940174522977, -1.3342979851008838, -1.212820655215858, -0.7881086455444098, -1.100206558299424, -1.9507630396422195, -0.45844607318121894, 0.19882124148946023, -0.9154491651525414, 0.6533704478449089, -2.2775793375289246, 2.241865279248316, -0.03592188904542139, 0.6871053376253069, 0.6515661483526852, -0.9494100794551755, 0.3838412638039292, 1.3446064960404343, 0.6248641472445051, 1.1012480826212212, -0.6817447537132518, 1.0154977988837843, 0.8139533748068455, -1.6520377985418986, 0.6814288893220315, 2.1665352629651378, 0.40073696257717445, 0.017642120886998153, 0.5009722973918003, -0.53170970472275, -0.5292988664464271, -1.4905526019258226, -0.9470829448699616, 0.4977345380654879, -1.5986342974721233, -0.19341740981558103, 0.06850665021698735, -0.29881909431643905, 0.17034350713730664, 2.073614184803411, -1.0339570740317254, 1.6317201877046288, 1.4826881081760217, -1.080715958048042, 0.29993583310932825, 0.9766792962765196, -0.45094386946524223, -0.008379143478841718, -0.9921842593998387, -0.4843001079321467, -0.9738476354820941, -0.8389098767516341, 0.22893165208078117, 1.462257656417818, -1.1972080856065976, -0.8681351720847044, 1.0827708756866075, -0.01743385797744216, 0.9785904181946239, 2.2266069200265837, -1.9746718961644525, 0.3889787495112264, -1.3290402228666403, 1.126104752638011, 0.7782012650326291, 0.7554442320161392, -0.2996130908533363, 1.4384616025148345, 0.1962031743864761, 0.1862995238101996, -1.2569910838948501, 0.03632111723081041, -0.7881903311945114, 0.30960751869833464, -0.009920283425074868, -0.4959499187740674, 0.7834080436441468, 0.7862562525280675, 0.8575945215905669, 1.3827095608278563, -1.197231030042058, -1.7612799118304872, 0.18715335322187143, -0.10992489025518876, -1.7547884471931414, -0.2772463851806561, -0.14348348950791187, -0.35718022540185407, 1.1468965581534136, -0.0972465255192209, -0.9683562884608337, 1.2839662708388404, 0.3184490105425484, 0.3804079767945028, 0.7606651433959855, 0.1885065000585249, 0.5301299570301423, -0.4956616793410177, -0.025699514198876245, -0.7117863621437936, -1.8085276541568187, 1.4554491752146947, -0.13804642677004664, -0.4889786041065859, -1.6072493138577515, -0.23663371182188062, 0.4654423159763443, -1.0720923529173125, -0.34308032082189766, -2.2789826211955115, 0.04743970688023327, 1.07779214884577, -0.5520806971635741, 2.4727999826964346, 0.6912262869958402, 0.44910565031797867, 0.9592549483612417, 1.0098092216523706, -0.04070120779024411, -0.13842146505929284, 0.058281361200508766, 2.1584850845583987, -0.30883414306767853, -0.8696782717836945, 0.4196833434429422, -0.7764501103560756, 1.7940631732405943, 0.9932846106578485, -0.30710726664721444, 0.26393080031843924, 0.023408230433780448, 0.5222383735349295, -1.3406325974803959, -0.34053738285161844, 0.6978738115197879, -0.6423227521970397, 0.4083142229271105, -1.1188852414007584, 0.13348535881823817, -0.17042379467189672, 0.9941379867282278, 0.9142113772197135, 0.038134550991295285, 0.19307083476864148, 0.6853907661271232, 0.5443496238813289, 1.9479755681839745, 1.7759745336487711, -0.19301955702922682, -0.8100039649761295, 1.222244752463343, 0.34473896482344846, 0.9083063922798356, -1.487968620896531, 0.6151327094001359, -0.20249845584429055, -0.39591694828587837, -0.3521931961071995, 0.16551892299819446, -0.779932603670929, -1.064006002233776, -1.4370808797353132, -0.3390845732888104, -0.3192775249892452, 0.8215618621816712, 0.46916702552248785, -0.5438949794927175, -0.20896777516990037, 0.8400008658409731, -0.39784248201048444, -0.35000189022239386, 0.054395509057943325, -0.19409637676054473, 0.7189321688343068, 1.1935963471462137, 1.264888590845207, 2.37753311552455, -0.011321232909960392, 0.09989132531773501, 0.08509205833512867, -0.8898828414748486, 0.5018130625322514, 0.05572693071357951, -0.8036295280252976, 0.8685704612872643, 2.361186381527157, 0.04352058174238412, -0.9795079111927336, -0.32924348779076895, -1.4589339436372564, -2.19755167282911, 1.0143074744773282, 1.2689021096959379, -0.7873923114303539, -0.3244627225659403, -0.185090496082097, 0.3961717507033359, 1.2698795542056014, -0.7860175926577205, 0.21384808379996934, -0.19837699279830212, 0.30801308577221864, 0.7419403170363, 0.48193131894188757, -1.0791201360501992, 0.036353950027585756, 1.4038464443392389, -0.46063204679595104, -0.12960840480721755, 0.9118485552206876, 1.1262286290734653, 1.205564620690597, 2.530531691861384, -0.8836097145083533, 1.1837137895505445, -0.22594568969915238, 0.35477172429131754, 0.3772174207671679, -2.5271255167935367, -0.4758061038406474, -0.05222525425025574, -0.5951960693604208, -0.06445403915915127, -1.2729486347733106, -0.4725341876315148, -1.8222944872000382, -0.16896661134822827, -0.5812357940109804, -1.6536291973984196, -0.19421799041031093, -1.1509459910430688, 0.2753010883127273, 1.6326372347766556, 0.19170534183158522, 1.0050604205696418, -1.2370454849454513, -0.4356795548995981, -0.8143181933795473, -0.47857895189329597, -0.7395801408356605, 2.0008585148284306, 1.3551594393551438, -0.10902260978824956, 0.41879204404948983, -1.5860847400194513, 1.3820702297607117, 1.6400439297823837, 0.07896496864759706, 0.5278036628836574, -0.9336802919168062, -1.3250378504980813, 0.24365269895868086, -0.2426742389535003, -0.2136779700375999, -1.375507089012215, -2.1955625312667935, -0.12565453721978423, 0.744697860636278, -0.8892969382204093, 0.046584177381845164, -0.2116513342867694, -0.3395828991714402, -0.2104211965279422, -0.1521776512322894, 0.36374678002657107, -0.0498736438242724, -1.4841047191293797], [0.28150312676024997, -1.6830678841160602, -1.433062117631871, -0.5230099196329123, 1.3889103840329429, -0.5074022075135327, -0.8348797431921917, -0.2833088411836091, -0.456177188744158, 1.2600485812670645, -1.135121622233596, -0.11410957417253294, 0.8814556864743669, -0.3126495254868379, 0.7570181492619394, 0.5482011680211596, -1.3979660305444432, -0.9436354745122963, 0.4994868688171561, 0.5485507079384289, -0.5133522126120484, 0.019876703061813345, 0.7787948897235732, -2.377575956835488, -1.2014839695814652, 0.8230508071756502, 1.5456621539953441, 1.624079440615876, 0.1294354634061493, -0.9537532367322888, -1.084780298533164, -0.8453715781001518, -0.2679178517778984, 0.5081752153472163, -1.6608658355166985, -0.7629616025877114, -0.785639728304041, 0.5689529382511499, -1.2867838261587323, 0.9108674894089342, -1.1717477494895057, -1.6229275263343437, 0.6674944505615039, 0.017254672745486515, 0.4818475193383315, 1.6827607270641944, 0.9273752266285479, -1.9303448511781225, -0.9453920268518787, 0.7085049951610001, -0.2253253670050113, -0.8869182213384529, -0.13388841067661747, -0.9970126388864399, -0.8114017978355826, -0.28018896461631765, -0.7557919461972765, -1.6747266449851246, 1.5224792524909556, 0.1758457461563544, -0.13391347170388196, 0.06826467823745659, -0.8966362476312911, -1.2547157715384427, 1.0171809881433842, -0.11821517860979183, -0.5244286373364762, -0.780925983819651, 0.4832563378820113, -1.4589031736386326, -0.2902606565506165, -0.22479904937649922, -0.8243473498470653, -1.4040479606419949, -0.13225523559577415, 0.3414585209780979, -2.131799352510085, 0.6378455091974063, 0.4084627515706467, -0.32585983381215355, -0.019988524165249554, -0.2634360220538212, 0.9838518907062632, 1.0050212097522244, -0.9614626051057041, -0.5979816608587626, 0.04444826328410129, -0.4779630045141351, -1.2231085024289126, 0.6015898393011881, -2.9530811911450825, -1.690104084563899, 0.6229976253016662, -1.1230572517531172, -0.9948229428682075, -0.6307491524680385, 1.6258670882350172, -1.3541949870471253, -1.419230467142566, -0.6475831382403258, -0.5665437093193753, 0.2011160077754603, -0.6764663951242613, -0.06134984069402343, 1.0533583261363302, -1.8937385069583748, 1.3117846723431412, 0.41433486663275226, -1.3741729478300233, 0.04144859482726253, 1.1235259765701369, -1.5796090116898571, -1.1413849180378128, 0.457683951085192, -0.5460557223548295, -0.44413907541082553, -1.2845775153805365, -1.020082606181818, -1.4568465376063728, -0.03112314647409575, -1.4118248205887527, -0.26741458152869413, -1.8294128711051687, 1.7723376585458974, -2.146917726736772, -0.5850628212414131, -0.9571745254019385, -0.584370603474915, -0.33186969256807863, -0.647409233272505, -0.2542012184432228, 0.14594258691413817, 0.7019862167775801, -1.1433738582387425, 0.731628272103362, 0.7805001354805257, 1.7360686153990548, 0.3263561983234839, 3.029616258984766, -1.90623009384794, 1.3975755948857516, -1.2069572583636268, -0.3715114519424289, -0.4889645242805866, 2.036565888220227, 0.2024197382148794, 0.9461086029450324, -0.15528118151976175, -0.027432867773236835, 1.2822372904541588, -1.2306952029820262, -2.103665535487253, 0.8140594983974123, -0.5217121336984956, -0.2551690713579806, 0.3755989478549096, 0.5630229368909964, 0.48012238264492946, -0.11994943799354829, -1.6021433830033347, 0.6262961693422439, -0.2693037978487775, 2.512125703304225, -0.20642181665605772, -0.19542229457502192, 1.1335738761690697, 1.0344196646151618, 1.5732560167515257, -0.346492019021203, -0.6298525903206682, -0.6632572570392592, 2.1300834379566806, -1.4181312450048906, 1.823655497093512, 1.242147414637013, 0.7401117173494832, -0.09369576820539938, 1.0647687480776413, 0.09747586243365754, -0.31818320599508654, 0.7322990138677572, 1.422410629179469, -1.1116143752796073, 0.5345225359179728, 0.025892285076392157, 1.7237592921034166, 0.20731888617313335, 0.40122275407044317, 0.5993714246131239, 0.3741372491608979, -0.29440520264785786, 2.80735618108248, 1.4565496190321217, 2.0958967982481886, -0.7640625645539203, 0.9298689672468401, -0.42084510350222737, -0.42634660902966337, 0.4442033355931459, 0.18641143342518213, 0.7387400307578427, 2.3537004846741914, -0.41776625876190043, 1.4661531886089967, 0.6289284272261081, 0.8395915874847715, -0.13020898707973677, 1.1960682707626966, -0.09418154140403893, 0.571535925905036, 0.7954666323230611, -0.2477189689673035, 0.8340340530414058, -0.251238596116881, 1.2405744844035629, -0.6174309339677082, 0.14336169221295644, 1.2738305677092723, -0.6581665262520607, -0.5043370832537208, 1.348808586197013, -0.4366062336730832, -1.0532683195605763, 0.7773631137338594, -0.84383372186267, 0.5076526364458774, 0.20532049538311542, 0.761186527007806, 0.44980815147642755, 1.9298467531298298, -0.4359683194447255, 0.2739045808739647, 0.9433114624433313, 0.5316279306806267, -1.3830335908166966, -1.99122341497558, -1.0194662578947031, -0.7863738902354858, -0.5369909917692164, -0.26724583646077876, 0.44609486706862556, 0.18303047715174303, -0.5933060678055138, -0.23907042602973094, 0.041337643540827015, -0.0025997564999272567, -0.17949673358556362, -0.18068995264049867, 0.5539946817954816, 1.6714068375726225, 0.5965443908290452, 1.6223174235096658, -0.03308819551350511, -0.0498982162304567, -0.34554972258991107, 2.866752613894844, -0.3561462383842537, 2.1951957758085574, 0.38843273476592477, 1.1984361586067507, 0.3483542671752052, -0.7399632260132039, 0.9715569411244721, 0.30171066613168857, 2.1646781444097845, -0.020903352260015964, 0.5655096388947893, -1.4512118701517853, -0.5432498488199907, -0.2849113193914962, 1.3071814987176693, -0.1287271086354117, 1.6360481738198964, 0.37404797328310446, 1.1643808279236616, 0.2247490792646628, 0.0571349707176533, 0.9575352634816601, -1.144904130036462, 0.4158817025070334, -0.6358785064786522, -0.44461702597058894, -0.7431520018276772, -0.13707732349198257, -0.1556077767484613, 2.1107234754860027, -1.7915917522204126, 0.09952639467372801, -0.20116089222674058, 1.3508397923421203, -0.6809616265602823, -0.11032957066109411, -2.498482024455765, 1.3779828429103687, 1.2893498592138044, 1.455821558269822, -0.41220464345060076, 1.4464935106335153, 2.2368893638937526, 0.6655175127747125, 0.40482188732506874, 0.08758753528357696, 0.8196039124064874, 0.1753667672638558, -0.6095920205375663, 0.7675516941307103, 2.580569195116782, 0.6569618134287714, -0.30120523083566286, 0.7966099371177103, 1.7007506251227442, 1.0310025430968561, -1.3082379902976446, -0.4841133673511565, 1.0858764292729826, -1.2821972202766174, 0.9610645540203085, 0.2391531704925742, -1.122437573704902, -1.5749660138529267, 1.7026646570504165, 0.3504150906320978, 2.147425342313525, 1.9953277266700906, -0.22568777496605696, 1.0526873749756918, 0.3706453632615791, -0.9312465690581455, 1.2313724906857446, 1.1148525283330082, -0.20779697681672604, 1.4180932309152081, -0.5384097434989544, -0.36508505618682896, 1.9086691507557139, -0.11626550021289538, -1.4741041244513116, 0.8787093363601817, -0.3252134962024798, 0.09329350742654294, 1.1198318117957817, -1.1077174970039874, 1.9020912640825316, 0.52229802436955, 0.679306935415756, 1.2937314548170866, 0.660449386227909, -0.0629028550423839, -0.2605732171556408, 0.9789060515774552, 0.33813835038302864, 0.38470676355987937, 0.6184023857046642, 0.47373017012746976, 1.1601432235545717, -0.3236699216541734, 0.7390117129732597, -2.1789365566126775, 0.20034428907273089, 0.5280154265595177, -0.6554096789922083, 0.7795930318793314, -0.7362621207106537, 0.547685868559813, 0.8284016671924077, -1.6820519379416683, 1.4899020311636095, 0.7342705160833501, 1.2647509303313724, -0.7812344102062235, 0.03341157695492771, -0.5366478848598056, -1.2543661002639037, 0.5396153765797878, 1.6113665676143105, 0.2770694979106653, -0.7548404637612909, 2.5116659946274433, -0.2871819262084306, 0.16912561993424088, 0.17482390135279807, 0.7180454463116938, -0.6102426222764804, 0.15650727833753608, 2.293760620583826, -0.7705338914997347, -0.043068395031332384, -0.9085690935000285, -0.037816807098556594, -0.44248346714462755, -1.1409797606413035, 1.524361731673045, 0.5851946664378027, 0.994906472264024, 0.923544879673308, -0.6000978902452972, -1.101550561353617, -0.38015246628184995, 0.5822566157557709, -0.7694094571141636, -0.21395554383926887, -0.7827895565574766, -1.2185923210811398, 0.9978204682354567, 0.64166209643624, -1.303050263440692, -0.28760865657939383, 1.1335506677655904, 0.9311349391149096, 0.20444788741627157, 0.5256327474889763, 0.7911656844502138, 0.8126035676521479, 1.0898500232896247, 0.05418581821277492, -0.7991174792495439, -0.7216598535457082, -0.4623322604038907, 0.5687509988049108, 0.5513101423351917, 0.13361015022072475, -2.735381538348402, -0.21009801578057186, 1.1717899410972141, -1.0180691885780933, -0.9346036678529172, 0.20968141737185886, -1.8985459722024096, -1.3148517386229883, 0.8091221381010557, 1.6068753761226446, -1.1144711582888056, 1.0972688663989598, -0.28433293238989565, -1.5338717338823848, 1.4619435335405635, -0.5626589579328479, 0.1567345482493884, -0.15361033262552276, 0.28370967451825774, -0.5409301602992231, 0.9916579620708181, -0.9283840381341866, -1.030074171855158, -0.08989646807225016, -1.8212455768484597, 1.218305166053523, -1.0061761187880995, -0.10427857235295807, 2.1679025062597934, 0.6439789462843069, 1.7582231422162815, -0.2712771727744348, -0.0737688232944887, 2.253853338241801, 0.5884881221872439, -0.4485570196200882, -0.6276614101792396, -1.2235283477446595, 0.3593800582804235, 0.07623960874638223, 0.7261772881849728, -0.18869134640529664, 0.8300986369319966, 0.8409212915630357, -1.0729711910605197, 0.23002648538781933, 1.1911108524891199, -0.739563939755322, -1.7684424091231936, 0.6610063507424698, -0.660990886794176, -2.8051216411369464, -0.2685815999069675, -0.270344224519896, -1.8210785403361134, -1.648087354836856, 1.5595225085977085, 2.049124881894518, -1.6395873405941697, -0.729412803765044, -0.15906508996735533, 0.16997482523920304, -1.5695511205760648, -1.783451944679596, 1.0593932576139562, -1.670019127826042, -1.145640752550883, -0.7175692939520301, 0.3600443287578842, 0.0648036888224565, -1.143709159105018, -0.7606567563689459, 1.9869084023064623, -0.9649669344810063, -1.2716156212781482, -1.7966646066242342, -0.038307129125631216, 1.714325163837582, 0.6994019166772746, -2.0228148634147174, -0.4518904896766444, -0.7777411380376434, -0.7608667705236238, -0.009737255647359014, -1.3745893285473763, 1.2458566114571914, 2.0716865360524226, 0.7858718587739414, -0.08247426008021341, -0.4002481581191912, -1.4416596202761478, -0.49860316003673, -0.27396502406036266, -2.4645268555585336, 0.860099523311447, -1.1338796812713616, 0.5205922470466641, -0.9643156115756422, -0.09622664829609692, -0.7870645941202772, -0.9263103344875065, -0.05542222100594875, -1.1009135718050171, 0.7079945760753906, -0.2693480931146124, -1.5342425924452292, -0.22324219091362701, -1.5669054424610627, -0.41092361655843357, -1.465361218154175, 0.9039087534244804, 0.8591313539483442, -0.45231468276070924, 0.707201334938337, 0.8868565663014085, -0.9434393455411947, -0.9274788360246805, -0.6203356433256056, 0.3746793169133296, -0.5185921686863885, -0.0201446059931312, -0.5371287241887701, -2.3739372560403704, 0.15964090297267924, 1.231363334980988, 0.03608544102140872, 0.40846208125136146, -0.9169725088022406, -1.1987244261898287, -0.7454636432962077, 0.833474732924553, -1.2330328750734738, -0.9249515648156935, -0.8643494284503102, -1.5514004826571686, -1.4455735535235061, -1.3753467900443328, 0.8743188280956092, -0.06654671725759354, 1.1420825576379254, -1.2336192547326723, 0.9247608415056235, -1.1863167570070017, -0.11267514974325417, -0.6251958541308522, -0.4650576064989142, 1.0036540623523325, 0.23522598565154282, -0.2636562283950031, -0.45470655719728564, 0.9022222554690076, -1.3684109862470724, -0.8976332565295644, -0.007873566846258334, -0.2965515025772016, -1.1880364238601158, -0.9902469835972185, -0.5336213353916479, -2.390441068417924, -0.7001248163971312, -0.7770913299220565, -0.02169746748710168, -1.0010545809852276, 1.5566002495657631, 0.1595968485111194, -0.9668263136531238, -1.3445598034757624, -1.9162050460784592, -0.29069932867522996, 0.9626269429596005, 0.025576010134530005, -0.3734203392321197, -0.5741733285347256, 0.8198210316005269, -0.7112236323615496, -0.9570235789133045, -1.6092634840248552, -0.8235583413533571, -0.40110176857555124, -1.0150984699673218, 0.3148583490371079, -0.2362668927952164, -0.6656782862545787, -1.3989728870630163, -0.5296421495108222, -0.6107456842660717, -0.7717981672402918, 1.0701647397674214, 1.0995616748907469, -1.0007182050667687, 0.43244574271089153, -1.0451113260495632, -0.6387118471663374, -1.1836885861106876, -0.5693654485770094, -0.43483695549176904, -0.22902541668327078, 0.2104217472849272, -1.3532684486875426, -0.10278887002393276, -1.4629137806221932, 2.478168414019729, 0.24773436142831, -0.38280811527171626, -0.4653828438747301, -0.42565164415790463, 0.49292145478984767, -1.2435124571092033, -0.8308096035632259, 0.4829494203757887, -0.4678072842783116, 2.1619227600131445, 1.8009663421615694, 0.042096925871960414, -0.6268326110362208, -1.2255761177762168, 0.14396296041264361, 0.014530568203805513, -1.478307507442496, 0.2600939731534284, -0.5755363593303577, 0.7905701034241192, 2.376926839660138, -0.6163783975124357, 1.3923826344255186, -0.4217435803249971, -0.3444497835690252, -0.924998452248316, -0.2963337077221896, 0.3579268295559959, 1.3310260023257288, 0.10172980787530424, 1.0164729542386404, -1.3651095404173537, 2.3712566657975325, 0.09805950001567379, 1.5841328681975881, 1.433793076706449, -0.056220517142271144, 2.655519262461938, -1.4987081504924724, 0.08446923932788085, -0.15815386391947373, 0.31280405508299713, -0.23565740720716713, -0.4188706958226867, -1.0366359594214702, 0.3137383358533681, 0.25940152993411825, 0.3645019984580557, -0.25531067987561823, -0.6629119972867297, -0.6835846928277225, 2.2197488712648976, 1.740039167731797, -0.9981898355595453, 0.9689999862306748, 0.6189295972898834, -0.6296941616913673, -0.0012080484628831237, 1.9486923909027563, 0.5308745218137576, -2.5657424312857056, 0.19291212981606448, -1.5269352902308178, -0.5905489538418396, 0.8375859694450732, 2.6628900132513196, 1.1059375306098997, 0.7646466923554508, -0.3304833096803911, -2.0354089363750085, 0.8391436486160336, 0.13446093760859115, -0.5746035138438279, -2.245314272391382, 0.6757939506037944, 0.626205192908448, 0.8890280136827912, -0.7763421767344695, 0.38953352764276805, -0.9630928268103178, 1.0082065967293499, 0.6309346123844474, 0.7317823342815343, 1.0864628304658124, 1.8736106682546685, 1.533319659444334, 0.768883296871156, 0.8098409888261754, 0.8176137503675548, 0.7091879084848226, -0.812397225195326, 0.8866319086416602, 0.9511912086934764, 0.8479440527195581, 1.2734438466039388, 0.5341158448131512, 0.7665349018049491, -0.9678933029619213, 0.6444535103617921, 1.730409290269836, 1.1258025526684226, 0.49769275260648305, -0.5831009197586116, 1.201046586157402, 1.0703860374853427, -1.849976554496699, -0.6099998695226917, -1.5190780601241785, -0.9970170869249327, -1.4631271630194131, 0.8610212412563963, 1.3196347589184343, -0.6795484554692889, -0.6156912478696925, 0.5185887712351176, 0.11661791593286415, 1.4953221911642596, -0.8965844909744773, 0.5076459805468292, 0.4896613479569968, -1.9967187191113316, -2.450128972448365, 0.35216582088863085, -0.09957954184170295, 0.20483440454309318, -0.09996916814633496, 0.2658786474110182, 0.4012540047666253, -0.8887842351111238, 0.07785390429342462, -0.19834532139071828, 0.6032232343845023, 0.7323645540337815, -0.24490736251011266, 1.0517496709422207, -0.9371232644268099, -2.1845483832902266, 0.8820301411812351, 0.18558453138797829, -0.4302026358478431, -1.3435803841212492, -0.9472128038544593, 0.5294899847132001, -0.9907866380368086, 0.14672822443291283, -1.2766512566912578, 0.2704016765331616, -0.6934646743275394, -0.9257951298713957, -0.22712750587435102, -0.021520680586155364, -0.3322033829546121, -0.9442405266871112, 1.9883884577647797, 1.6742684592277766, -0.13722568610659155, 0.010157243392861223, 0.5501288597878798, -1.0979463621147791, 1.0318863021027664, -0.08648552243700923], [0.9463608737238548, 1.744557896065349, 0.8235652778205304, -0.5222399127352149, 0.7847458148320527, -0.32354000106102854, 0.14742329476805, 1.7494479475076774, -0.42506688354028815, 0.3040284578058556, -0.5447563867835963, -1.2826828346803136, 2.7187927894390396, 1.6971574016173345, 0.9676061608601724, 1.2428691557997602, -0.737253785178095, -0.3660737093884127, 1.8311887539878808, -0.482593818001284, -1.0885610176889982, -0.1266920344591518, -0.8259834124392396, 0.9336112290452969, 0.12925700305423668, -0.7598330530527572, -0.31372604149362887, -0.23219070477019474, 0.8382522274714183, -0.7272545621602268, 1.196580051021155, -0.6161402405509496, 0.9144488061553716, 1.2406498219520232, 1.2243614111238075, 0.5461939205244364, 0.8166045175785032, -0.33953991727405286, -0.2738003289287483, 2.1822435458899037, -2.6525218454389363, 0.19588145998097026, 0.42334525706088755, -0.3199050168943226, 0.9619179260887667, -0.05613761055125055, -1.4402051800410405, 0.6388642753539383, 0.05137771576061178, 0.568111571685568, 0.22390332647010744, 0.170544828891452, -0.9582543111251067, 1.9824209102769201, -0.1968834061166218, 0.11114393225219946, -0.5874135485180203, -0.7212642396409611, 0.32164155957832197, 0.5227422841193796, -1.217076520792895, 0.02761394137312905, -1.30332337813957, 0.9031454119729242, -0.7677010622052153, 1.1652941803362051, -1.4226317673255546, -0.5201861364149993, -0.42417304771812653, -3.737462071755894, 0.27491993014281324, -1.8235241996733027, -1.0124673181941697, 0.5964182578769263, 0.2270101540242369, 0.022347520480923366, 0.007856493676704336, -0.9547448089361744, 0.4307414760026944, -0.2641114567458555, -0.18272486601021287, 1.4997552011058477, -1.1106628120574107, -2.0140903905153182, -1.1317599106067644, 0.9316028109253084, -1.7281292490761548, -1.415481038758476, 0.22309235051524356, -0.8688784435086481, -0.6301602434401399, -1.2272474073141315, 0.6373833418502907, -0.4860955658731381, -0.4803212974924513, -0.12040535376750633, -0.9507201764014042, -0.6904626359503432, 0.24839197737503765, -0.1378827084614345, -0.16029222610444355, -0.10139094499634507, 0.45887025655399283, 1.1222373595555155, -0.38837163692143184, -1.2711937347081521, -0.04551563272746041, 0.7261393888391735, -0.672840919736276, -0.8677146556287912, -1.29733773845119, -1.3915337214325572, -0.410332471754692, 0.6532226001791207, -1.402227935029399, 0.2731707437153947, -1.3746432594281242, -2.147413765921491, -1.5384336133917007, -0.030264768418467463, -0.6117702593463454, -1.1950111237211631, 0.3474347889890516, -0.32428141419806666, -0.7422636890844597, -0.9074040206316316, -0.3601068406890025, -0.5462117256931721, -0.858193765004052, -0.6708762367908229, -0.7700335720132213, 1.001557519634661, -0.3631445813903731, 0.37230029810480736, 0.7587044136095237, 1.2648996365986598, 1.8730666416081336, 0.3637840687052756, -1.0064650866468223, 0.03685233828939282, -0.5754948275800943, -0.1656955299303967, 0.5075026354694873, -1.0682017323155837, -1.1755844845778076, 0.47463359529623117, -0.5638134612345602, -0.6349256338063913, -0.7400371686625106, 0.44918493690493555, -0.34598566240947265, -0.581567318117445, 0.7731503762219291, 1.238489178025539, 0.8557651605022516, 0.5870755833051098, -0.19889818194575837, 0.8095321728709414, 0.20838354356233266, 0.6643523017822289, -1.606758192256636, 0.08442324529967085, -1.193538117001739, 1.1909742201987108, 0.9076873204694967, 0.3409764614550049, 0.9788862971250873, 1.3345932118205157, -0.009539783189118542, -0.02691837693810315, 0.28886014546692595, -0.08376712876935262, -0.9596240172802332, 0.9650527072110424, 1.5808384839625658, -0.4394733070097738, -1.3299191701206687, 0.8529534291359238, 0.487530460908757, 0.17510784117366368, 0.8210581960297612, -1.0658047042483387, 1.9433260260872227, 0.30880183399839867, -0.21504498985251866, -1.0895509530467296, -1.46344339582362, 1.9770355733537952, 0.7012090948329053, 1.4085144887559344, 1.547837612018063, 0.3459583162084848, -0.318673082869376, 2.539078870589713, -1.4784347353945204, 0.08929814280139756, -0.5312752881598071, 1.4208864406259947, -0.7169291626629427, 0.9400711320050973, 0.7648958655244958, 0.36872905659042704, -1.2899663014823128, 0.621822322163743, -0.8240183773092861, -0.5237962568083406, 0.6462380762536714, 1.1302595580908488, 0.44242057462084766, -0.20836760767016152, 1.3113366269033757, -0.42487544118508774, 1.6826993023729466, -1.270022858078995, -0.4804915834495329, -1.0584986718147045, 0.11508582555791987, -0.7073769190430504, 0.25617626173084634, 0.3389560346644828, 0.6311213515410278, 0.6652720779061214, 1.295612820582934, 1.5882689380069777, -0.1473399483942347, -1.1353303572459656, -0.317129640801986, -1.0461357052893099, -1.4045582323943833, -0.1254580250269381, 0.7620780296210503, 2.602558459534102, 1.757545226760991, 1.2275039435091217, -0.5133449961136313, -0.01607153908963017, 1.0199580534288095, 1.7965599029663741, 0.48303056035567876, 0.12557117999253423, 0.6496258715942816, -1.0525143709470446, 0.17123493156568978, -1.1817302557011893, -2.083219980171907, 0.5183115911677612, -1.0769613847392774, 0.4236553641135276, 3.078439733200265, 1.3653494019739532, 0.43033989580603876, -0.8703964866785547, -0.9464328353456615, 0.46353959888328977, -0.879218863370452, -1.4711685478900272, 0.17471694909090685, 2.3616817944320747, 0.7152343212471074, 1.2607656871625683, -0.6734621168647115, 2.9373471610995407, 1.8233005451193203, 0.6361165893122883, -0.45615973594986753, 0.06819876206370838, -0.08580934855256724, -1.385282353313433, 0.7868613566269447, 0.17274369979507306, -0.36436542116512355, 0.16576414161153244, -1.5855504918569387, -0.0901768196899367, -0.8693063018374337, 0.5555032292418325, 1.6288959114741095, 0.9040689592787866, 0.5958150843545148, 0.311662999464499, -1.225536284829221, -0.6781296495053966, -1.3639414268012076, -0.2643935820479718, 1.5774711450512156, -0.7392724589064369, -0.06575271950997588, 1.55198846737593, 0.07820703999578031, -0.4168772475001135, -0.34476413603196465, -1.5729180417680055, 1.637792549231536, 1.1272580610076062, -0.3205024634680679, -0.7306893267606247, -2.2222784541030607, -1.1605414358112873, -0.8850246024005113, -1.297180536259897, -0.6514875049128284, -0.07974821152554117, 0.7413813076029707, 0.5780215459421346, 0.6076100988872327, -0.5351082314060872, 0.4166247225163111, -1.0158149851549532, 0.14514394685291326, 0.39067912166098034, 1.0121607383007483, -1.9614479664888402, -0.6148152034105852, -1.2219200337084528, 0.5368663262707619, -0.2600004113632415, 0.39929898389917834, 0.5082680655699823, -1.0001931076880155, 1.3779278852945955, 1.5742140972811882, 1.4516436254246292, -0.7398880402186022, 0.06954693040821115, -0.7656121787254051, 0.7383713244011136, 0.5567870875491074, 1.9954359975696287, -1.2013464781140695, -1.17718203786135, -1.1539493558432266, 0.2942471238734726, -0.6574741501361638, 0.1641854925444362, 1.4817525430422378, 0.7561017866210151, 0.6134660501391044, -0.9205647858769155, 0.781537460313582, 0.04901544178456034, 0.17735707660343092, -0.7798786571932038, -1.5671881994910828, -0.7571096150383141, -0.6372426747715667, -0.6448073014862742, -0.06294555475892877, -0.34768975668725133, 0.3859795649851077, 0.735198273032565, -1.6597355452590343, -0.8570315314580831, 2.279092709228762, -0.42138516486384536, -0.2518457369465157, -0.25123221168866283, -1.6179362561875097, 0.43553953132793277, -1.6073935508895942, -0.774508889670523, 1.3298178183000517, 0.9649168025858783, 0.3939612357644703, -2.0701569812944287, 0.9578419107481838, 0.837470414859546, -1.225662164957241, -0.7370375477196082, 0.013033204373118935, 0.995676701697609, 0.64146022431477, 0.7432476530309163, -0.9625882300925758, -2.857353683248814, -2.581991916118743, 0.11045917589865192, -0.6852146902533699, -0.39642469931156626, -1.4802016763224966, -0.8118292342155963, 1.408252811892715, -1.013308214349549, -0.7794113319501529, 1.4736628777438627, -0.4142031874252942, 1.1974549083326917, -0.07017268033398198, -0.13541679847443677, 0.21850721578299118, -1.476114524079803, -0.5398773326339286, 0.29066183310625454, -1.3236484701775788, 0.6434640577463121, -1.1294214108390332, 1.0037973354033785, 2.3756683841830832, -1.1527961870271326, -1.2220080611751176, -1.3929411060170875, -1.0394201119526796, 0.5197739449962752, 1.3131207719259168, 0.7551084278787519, 0.42544266071842735, -0.18213640618903265, -2.2736997571451405, 0.09510140718542806, 1.471630778685537, -0.8516477542739369, -0.3422416168609905, -0.5056701560684544, 0.15023210510963544, -2.26212848211961, 0.3690662999468925, 0.7466679147121644, 0.27907908134337533, 0.2405073645527538, -0.254002529528933, -0.8641379460982631, -0.7322267568796424, 0.8844049322860564, 1.1955812527625138, -1.1763836366403309, 1.6602177606505946, 1.1467400294893448, 1.3957201048046681, -1.266845419291705, 0.030754399328536592, 1.4169556167895203, 0.49766503475304696, 0.43276077737010876, 0.22291049550792544, 0.42268020125786987, -1.1086482014043537, 0.8003005707040207, -0.059473711359518545, -1.096511604259333, 1.0204468141424847, 0.2732895207690947, 0.35541496618206525, 0.953921215628214, 2.0063618002862036, -0.7730545803190022, -1.5334775594834447, 0.612858243391997, -0.15108082119765218, 0.5766218069066832, 0.9204035365989508, -0.0074542212099477775, 0.7429974598102336, -0.5763685106131309, -0.3415308249463918, 0.3467929050219403, -0.396177201176098, -0.5586174846241639, -0.4015989413063572, -0.5343822424005884, 0.9030654958011551, 1.453314800106889, -1.5016783082650091, 1.0176032947203693, -0.1494929935681963, 1.5319583172326892, 1.0593614814178018, 1.4913323219524566, -0.24734318993826845, 0.045828295343187074, 0.12454346473622127, -0.22023133881103532, -0.5574946957326175, -0.5576189719245368, 0.5641138102711094, 1.1394004159951336, -1.1975218542561539, 0.1992971495961664, -0.07664186573908899, -0.058222595640743155, 0.8764069300684301, -0.21742893492879775, -0.4457120595678142, 2.577189655515803, 0.041883196471310793, -0.46124697779266516, 0.029857988918243497, -0.09009575318155785, -0.4176414702833142, 1.2782376331927296, -0.4167397910574209, -0.002010437728814051, 0.04681248679603014, 0.3806872374120397, -1.0480162962125898, -0.8913568756964213, -0.3216799921537768, 0.08626763561804629, 0.5277299383243641, 1.0913993449547432, 0.43396534562665723, 2.2982354854397364, 3.0767697501283213, -1.360327946297858, -0.7711728417845014, 0.538242257152398, -1.7409332744579082, 0.4250218752082497, -0.36245173222654475, -0.522560701309154, -2.236229043526146, -0.38781723957560443, 0.880448724694429, 0.40317430888328243, -0.49987043758954774, 2.6265239816436496, -0.7884586363628804, -1.679565146894912, 2.1076560406261984, 1.1020126794869312, -0.9838417696178459, -1.9522447449588347, 0.5600117085719407, 0.30379575547464616, -0.5666976936397706, 0.8850985580002823, -0.9637950558991075, -0.47474443501235924, 1.9786540447565155, 0.892588186323469, 1.3562972665254394, 0.3124487686334296, 2.1519187346171473, 1.3173240911667425, -0.7812911875363158, 1.7142194044263357, 0.1809269292117851, -0.43134349490322277, 0.20139993360857944, 1.0880782860729585, 0.780142464742115, 0.10663316391778675, -0.9177562375318973, 0.43175764635887787, 0.9120628849722807, 0.351319080578267, -1.5585705034609547, 0.17899096535868933, -0.12739283835568802, -1.7979791342321705, -0.21387052031378345, 0.7023955401324511, -1.0782810146698478, 1.0335942146073978, -0.3167060675502577, -0.48685626340550614, 0.1523980672915192, 0.8096197948133612, 0.25891635521548073, -0.7588851752559698, 0.24956929597458188, -0.0009406414590116148, 0.39180753887309894, -0.797488154635751, -0.7319634399776771, 0.7265249379389608, -0.4498526333385376, 1.9650511916983835, 0.6300259435550419, -1.0670660900736217, -0.16099804982967522, -1.106482509201449, -1.7409724790044523, 0.3715744049027911, 1.0689128079044878, -0.7322158131954684, -0.47057906358150176, -1.1576828887453907, -0.38095318954798013, -0.46254327278796664, -0.5188731513665599, -0.7997038739266885, 0.6374130365506159, -0.7643787486583425, 1.5677500016635435, 0.8597989304508928, -0.5736692847536091, 1.2493807151897554, 1.3943064727985033, -0.3901893231220764, -0.3533056287339505, -0.9481837511299375, -1.9277326632997833, -0.08225826439337879, -1.3335328015542134, 0.23192979427218494, -0.5585525022523093, 1.511793855053779, -0.24497117291846685, -1.0463231655332081, 0.4667637442780662, -0.1301857390945344, -1.886497660769125, 1.0627606203602384, -0.7961842900815633, 0.46066075098915843, 1.455867007852785, 0.13637362228634806, -0.37734442670665036, -0.15966380873027386, -0.6384398464550392, 0.9707598990009753, 2.2323930032215586, -0.32291238152202395, 0.6781646858408097, 1.3378278403394182, -1.7138648050803393, 0.5956793432847809, -1.3458915468768762, 0.4081203858252532, -0.04521365695458138, 1.1119608636801102, 0.594287581964401, -1.0785268426159773, -1.3048757030452087, -0.5427996640011312, -1.0972612863264128, 1.5837543230064677, -0.47882182253874966, -0.21262606493117742, 1.1498624598732994, 1.3379616128783975, -1.8454390348540795, -0.1055036904866226, 0.9567744908284728, 0.724077168659434, -0.23275160498550465, -0.3334922774199006, 0.18953754908203818, 1.9237069638122437, 0.22833495215329397, -1.2102037700446764, 0.36346087586351467, 1.2575701494392328, 0.7160991692253729, -0.7803453232419245, 0.6680703653018265, 1.3329054134621492, 0.20357308779094432, -0.7940582600909634, -0.5027185221373466, 0.08526037133142325, 0.55947182564638, -0.8750308225506794, -0.22485918918358483, -0.02325066729269198, -1.2659918174315818, 1.3979552538996984, 1.1764754337460768, -0.35537912272632477, -0.32898357970847614, -0.21409262194008655, 0.10965918423398209, 0.6480547170971315, 0.37823500649840536, -0.5033626891439247, 0.4430137582636173, -0.10312210722810361, -0.03930959125175867, -0.40389993551869974, 0.8490909134334829, -0.5386763299486846, 0.04345010037711497, 0.09475940548264111, 1.218457245614164, -1.0279253118492868, 1.037495619818759, -0.32781200633858565, -0.059553381778186705, -0.4274138278046071, 0.766144199592758, 0.5864230384614847, 0.8732476174470944, -0.032638770876504325, 1.9663263071923134, -0.6162873278265016, -0.00988104949873985, -2.058603104941843, -0.7305142097877144, 1.4308795352756847, 0.47515496376937455, -0.05648850818986065, 0.8933021951534608, 0.3867820670546408, -0.4605197439856488, 0.8244158886180402, 0.727163282291631, -0.7348427043638202, -0.18099965865138373, -0.4816913457880868, 0.998511149064228, -0.04748725006082551, -0.7686457484270672, 1.6311263130105662, -0.30173038344719844, -0.4494910796334878, 0.7212008963071436, -0.7626022481785288, -0.3220609831424142, 0.4234910157618859, -0.7337837411133615, -0.13224342043024073, 0.3261294778788827, 0.09416238026264821, 0.19215400113016393, -0.047506654661784845, 0.641507776047874, 0.9011381293921575, 0.1775974374102284, 0.8284197215859918, -2.336326541572024, -0.4344329170441102, -1.358221518472028, -1.7567490979633955, 2.1210523239381374, 0.08398995913585837, 1.2725651171130687, -0.7664013109835752, 0.019840622412696882, 0.48967176411579166, 0.3877755605172352, -0.17071231374832038, -0.652937903306368, 0.8151302093941508, -1.4579439929245965, 0.5631315610694501, -0.8116895644289757, 2.2306349718291685, -0.08844811656493544, 0.2998180641637587, 0.1075075665190574, -0.8708748861995146, -0.6508699350695838, 2.1494469549051765, 0.8828995519965556, -0.7910244363691296, 1.4774918222156401, 0.2434120425678728, -0.179385965461573, -0.8635287447889612, -0.2464581534059236, 1.226991074171717, -0.565410823496605, -1.07171006170109, 1.0058784636170945, -1.6399822415232397, 0.0962879236301919, 0.8040298287005434, 0.23869069453935568, 0.6322871819888422, 2.1816412516509796, 0.6769026628601238, 0.5999230698554564, -1.002621467174273, -1.1546806068788904, 0.24572278068080414, 0.04894451561585837, 1.2671374486373796, 0.5272738577744528, -2.030550674482717, 0.23697645085026112, -1.0531708404893168, -0.0002736068238583702, -0.02895308666170298, 1.5844698534918773, 0.9966906889627892, -0.44350367937756535, -0.1510558331424087, 0.38489371853325866, -0.36462224120225406, -1.0524544721669604, 1.0025706135518422, 0.6849038216532736, 0.5312982472129777, 1.091117707428436, 0.5754379951874249], [2.3080724810845674, -0.7008366665105967, 1.618159327366085, 2.3979224486341417, 1.1146682341151932, 0.24787619662331842, 0.5840116706780706, 0.23843972788605036, 1.9957514535997727, -1.8050496503890803, -1.542685191208808, -0.0031254297417493996, 0.91028957463057, 1.1572222180829776, -0.4252428162884498, -3.1402034730716086, -0.5992758039598455, -1.1874276812367413, 1.2676595986930983, 0.4762924167204606, -0.8013380162041733, -1.4199232018580767, 0.9680673280456027, 0.16578569123169976, -0.5967729199784806, -0.7440349071497003, 2.437100044827545, 0.23248731462395153, 0.6141686346158735, 0.5598423614312812, 2.4170283568712643, 0.1582769036775755, -1.0195653838590686, 0.22046155484289703, -0.9084140791631582, 2.051771197042548, -0.39670203802776044, 0.8485992489562156, -0.23478112376408333, 0.802095317759513, 1.3666503818017328, 2.4822871634302324, 1.00911115433607, -0.7330984288545457, 0.9286532390696605, -0.06825825634912626, -0.46446644200397014, 0.861868783965579, -0.104255533785205, 2.2662349347834185, -0.07125527730314554, 1.3554721756036214, -0.3732894702389326, 1.421212209063805, 1.2911308346346246, 1.357881272628463, 0.8076416152726125, 0.8791319411915056, -2.141414786525785, -1.1828155600595582, 1.2534153569656943, -1.2641054139382952, -0.06715203799984068, 1.500790683484507, 1.7340509620074696, 2.7881738481954867, 0.8229510220609717, 1.0367726718535106, 0.32169043979556716, -1.6722894579828653, 1.1497661078000292, 2.401451138061687, 0.17778481482932024, 0.6581510860161466, -0.5437899503085488, 2.467346281980691, 0.43017944422415477, -0.5779493382126174, 0.5655179271223378, 0.8540853110909893, -0.6119054496708423, 0.08256972976119437, -1.5417360202980053, 2.648121247742345, 0.20555413914611084, -0.923620944280424, -0.339059584793905, -0.7462391826369394, -1.1488515975702462, 1.3764975881258537, 0.7615143085358014, -0.5135027242304289, 0.17761318156309602, -0.7178744919658698, -0.11186948488016477, -0.2658092356303496, -1.8298168580455203, -0.5576030196897326, -0.12396671880670287, 0.6781511304013564, 0.25514783199817387, 1.5756373815743447, 1.6107246622616633, 0.5423346107109024, 1.0621625723072283, 0.766874307569828, 2.7464702302388315, -0.41669886089975094, 0.3265242361972719, -0.11633976998631235, -0.8347130339851117, -1.7824310094352274, -0.535665719951439, 0.5009799989588966, -0.8769855049259343, 1.8520108813081921, -0.43364268112248205, -1.5429713274643826, -0.9663046661286464, 0.28162472697897223, 0.43639339839322144, -0.5801890944208353, -0.7444518192800914, 1.1968985298518868, -2.4625529749980988, 1.121061913257915, -0.3389937594205397, -0.47197867711453356, 0.7787662579240201, 1.1250776614119842, 0.016117880802045372, 1.1193287265594205, 0.2089785125992152, -0.041336822128442426, 0.5568953688510742, 0.22044605638890397, -1.2630238636338755, -0.3952324939118345, 0.9565526970498319, -0.9131628971062428, -0.3742378572183404, -0.9552737124329237, -0.9365732363059435, 1.2777375843247936, -0.21267263024679453, -1.8701855258752975, -0.6431269330675446, -0.5286612385101304, -0.4753368391368313, -0.8309487548740271, 1.154854654174109, 1.196473720556705, 0.7023908019869821, 0.3762019902516857, -0.34901859142669767, 0.5601811771562343, -0.555006166686317, 0.3456182649693472, 0.09110067292111462, -0.3958731306971694, 1.2057643225891472, 0.9106850679705943, 1.1296286690227957, -0.4897411738689181, 0.7731080914257463, 0.5899267283897456, 0.27077500690231565, 1.039236801525656, -0.6004777652090323, -1.8315147405004717, -0.7032566295688208, 0.5450066551492111, 0.24481358519686347, 0.39820502508650757, -1.2343336761506432, 0.9139724765610702, 0.3674075969315606, -0.8515723754629952, -0.13896606416637858, 1.3820382254629489, -0.8215544617175644, 0.5217035339896471, 1.5857911126174278, -0.04409303581786598, 0.11462711382967831, 0.3863076474569223, -1.0880202791394347, -1.7112407931235971, 0.9947502966785102, -2.140476611741319, 0.5284248354630006, 0.045643298663856975, 1.6115679322523435, -0.5773704954550991, 0.31950060991917467, 1.557952077141266, 1.9171076281317652, 0.9478660270172368, -1.7774655435266684, 1.2490079956538358, -0.012617010120416184, -1.6984870328417034, -1.4284203181115556, -1.1461967688906567, -0.3139656306827124, -0.9665598248418659, 0.9266360199373821, 0.8864017915343263, -1.3291529030827245, 1.8280812241763422, 0.37253554697536984, -0.5298451484432563, 0.8009789587404018, 0.01790057681186042, -1.3173421237067657, 1.3964760199512325, -1.6459367057133723, 0.6279323398933219, 1.1377782918359711, 1.9399877312720644, 1.75836119146387, 0.3623984805878912, 0.20658184458872444, 0.8988869037871684, 0.14992422314278803, -1.5735005933690278, -0.3706685946260829, -2.3380136088234535, -2.2197391113119735, -0.9972332548478745, 0.3826585320429197, -0.7090307770370322, 1.8616082633393416, -0.6858855463797766, 1.0658348641275253, -0.0814873123673102, 0.9677566132173604, 0.01678813229657573, 0.25973264517104816, -2.0793197220986466, -0.44987559291222506, -1.0552814284226835, -1.37943039979146, -0.21779243650590546, -0.33540062478827565, 0.5013456976996753, 0.8820230259677012, 2.472828142204719, 1.6157503401454507, 2.037434400703778, 0.7930132499534213, -0.27891648726631646, -0.7530636976338198, -0.05036853539996887, -0.8667358342637174, -0.12102478716872322, 0.4012756879472437, 0.17207535540741117, -1.34788663612749, -1.5752301143787226, 0.11356387348453048, 1.270591929161743, -1.246186708859418, 1.3152617988375648, 0.9790896415380612, -1.6338995185105614, 0.19887288959250293, 0.16426175917286603, -0.9790930574765923, 1.0794858059427048, -3.2863628672265657, -0.6904482216206146, 0.4761624539121171, -0.0017300697528020632, 1.7077027594806422, 2.0325457112361986, 1.1308984850664021, 1.6563973071705942, -0.255238544693081, -0.7101425804792847, -1.410377583008966, 0.46606934007118034, -0.31778666032474717, -0.8745036225230886, 0.9437451605618425, 0.214702430958936, 0.5435644378186358, 1.6288460810578844, 0.4154266032952419, -0.04657897741294476, 0.008200627000712377, 2.381943147355115, -0.8168382072139422, -0.23033815481618486, -0.35961897245477986, 0.028501944754404054, -2.188946820426802, -0.6661435506976691, -1.2257767869170904, 0.9169890009926772, -0.9036633663566581, 0.6371196569712296, 1.0943964717381314, -0.36315250148856404, -1.18931509471995, 2.147763924703406, 1.7397878229662989, -0.5034344809198765, 0.5422029069409695, -0.03798819393279841, -0.8630614894894858, -0.27824145505396464, 0.6313537831162648, -0.3509019228316322, 0.08585076374365135, 1.3466565932584738, -0.7602567315841388, -0.8182933406757703, 2.0097761461957444, 2.7624710165048034, 1.307387258767767, -0.9942958464095519, -0.42439239120103583, 2.8292945731333394, -2.3069824060250927, -0.7070450974775686, -1.3155526521761727, 2.7578111417245115, 2.0441209757129672, -0.5340544857966676, 0.7155064253655251, 0.33034161962792136, 0.023883908327078065, 0.19425863105286748, 0.17611919543430438, 0.6370832339952507, 0.9451977173400137, -1.6541684396347798, 0.04719505683504854, 0.33151702331739014, 2.074394130815344, 0.0698448024322775, -0.013901131417181438, 0.5270924643999898, 1.3257257515613312, 1.4176394870309954, 0.9292478655813526, 1.205980096918642, -1.2641003887881321, -0.538244017197302, -0.9754489601116513, 0.5290846415736677, -0.6619719686837029, -0.5541732386342453, -0.026397053461297986, 0.42700024837649164, 0.762653674844176, 0.12055351720296996, -0.9230974047762659, 0.7347666854918802, -0.43183827819796466, -1.6876609231899358, 0.9350043971561871, 0.4388999322648216, 1.3935230457015615, -0.3835477915719142, -0.1204628288494118, 0.21209943235428436, 0.6414272527634551, -0.36172194214121717, 0.24230883920847168, 0.17285581605371547, 1.6703620321095973, -0.08353850903127194, -0.6747304684619971, -0.9176216563989136, -0.5413253308155397, 0.3538951911461876, 0.657925871161762, 2.160437322169483, -0.4270611841433813, 1.0212568860786806, 0.41570563116447073, 0.827089473848135, -1.2101691752719084, 1.3778323261542704, 0.03883321156263709, -0.4402118238754046, 0.39890831909621044, -0.180265652250286, 0.42685399424277337, 0.17099314836050342, 1.2116991566782769, 0.6255842028298392, -1.3884222088866232, 0.35192715148721854, 1.351895224662969, 0.9010054297713219, 0.034199549243159086, 0.45246818845041203, -0.32646113652528164, 0.47619968109593375, -0.07657477762747378, 0.9713552573970321, -0.8552130329810702, -0.9786439713503589, 0.0231716847538156, -1.1893129453427682, 1.0406256896266428, -0.5020885042311682, 0.6165986023153323, -1.211094479488477, 0.7262772384114885, -0.23218338780931302, 0.4126126115003407, -0.5114608151322932, -0.6188785727605175, 0.6636637101450837, 1.602301821381962, 1.4813715483627057, -0.7270201519663545, -0.3678097075207374, -0.2767804130547147, -1.0925572695953965, -0.5591794198297275, -1.6543361218954966, -1.9019722271226835, 0.55850672860015, 1.1593681740252737, -0.06952800123655403, 0.9206562276355134, 1.3505878862068676, -0.46470493962126463, -0.005795775975060619, 0.32539856039740034, 1.204089740930123, -0.4108821065137072, 1.403041479215948, 0.5973352300533497, 1.869320354252763, 1.0930747395999574, 1.5465682517324637, 0.5995652078730676, -0.8603655188112707, 1.3878619898573734, 1.0040583465907564, -1.5151558714929236, -0.10773343583984536, 0.15038193830347282, -0.254991761220431, -1.5048191880281507, -0.07405648260534081, -2.348300909803531, -0.9487175405454179, 1.6255509498984186, -1.37163407046023, -0.23712267757154162, 0.5065410606589903, 0.6050567582096174, 1.7470716062225982, -0.844031824627886, -0.057432318086348084, 0.21507307896352404, 0.40822116015665394, -1.3786622638696493, -2.298735427629555, 1.7331818130906604, 0.9478320077474955, -0.0762617118728614, -0.32315926399596406, 0.30724321382981323, -0.9302236025470252, -0.6398790162948979, -1.3848720506870575, -1.1929176694994827, 0.47166916651641033, -1.5277522899104052, 1.9628291278366605, 1.6709835870434133, 1.5670090722238703, -1.261912466104093, -1.794361937810165, -1.3502314219512266, -0.8009663728407203, 1.674264748090707, -0.15255845842909274, 0.8137549933347509, -0.8368082523355828, -0.43510425277443576, -0.9870028592482417, 0.42393803899686877, -0.17048049089402448, 1.3066539515742956, -0.11483085256364003, -0.491167497339738, 0.4374401418306973, 0.2903950768132919, -0.4936470875024457, -0.7769841943341892, 1.5378531752243825, -1.001007463647989, -1.5767790952338527, -1.6638976878164553, -1.4012357756521363, 0.23363710840335486, -0.008310872569813, -1.3316856146699472, -1.2249695270996208, -0.615372094485641, -0.13657384112223636, -0.7345468678865913, -1.083339082970393, -0.9408845050014508, 0.6513546644452893, -0.35226638202227056, -0.31601535847816, -0.44653574645968563, 0.1495142437170062, 1.0232481029238156, 0.5678526828766655, 0.5379461780751641, -1.0100294455250267, -1.6796747326861654, -0.8797907603103483, 0.8835857730419419, -1.5613376786963504, -0.8503467896398389, 0.05840121712492888, -0.4979002163238435, -0.18960588797050673, -0.9038651178226124, -0.24332237754405928, -0.06982492909773078, 0.1609451608707762, -0.4675473368704779, -0.32129795285859747, -0.42182028547076367, 0.3927334748441117, 1.3157804531064548, -1.4188329363302403, -0.02033959361240404, 0.8111574755004104, -1.257466786092132, -2.4145916131050735, -0.6869144493762819, 0.7412044947904584, -2.720286764397964, -1.073366559978668, -0.3230780376303706, 0.4540771476095667, -1.102133658302938, -0.1464334182149251, -0.32568007846228597, -0.4064075573208953, 0.21159836268130736, -0.4963420253434393, -0.46069460713671406, 0.40036254940389615, -0.39288216759096417, 1.0362643691728621, 2.396860717896308, -0.5319899277146468, -0.708413059807474, -0.3260102499545212, -0.629086249264538, 0.3357449848433285, -0.6530093709197528, -0.4401324146943064, -2.4886767453132292, -0.08844036036063854, -0.04389544390635801, -0.3099774252298591, 0.796981410758156, -0.9630682757430976, -0.008287712051103171, 0.22918943905959124, 1.24817410889767, 0.2656161066641763, 0.13126199598266974, 0.9138474209024572, -0.7054815670521146, 0.9428124330081434, -0.8630209724242235, -0.36485689237827507, 0.7114826291464591, -1.6474686841752695, 1.309418500361526, 0.7219940417174076, -0.6186987127733682, -1.1937198690764457, -1.3461625560268753, -0.912855967990332, 0.35028807975529, -1.1142576277449079, 0.8900866386529541, -1.4792356327000689, -0.24094447953333395, 1.5196855513826806, -0.578722652365743, -0.8127441820793307, 0.018728416027650366, -1.162473741509311, 0.015380100969688958, -0.6535844631545573, -0.8817661995337798, 0.8835716004126936, -0.6693096724280005, -0.6884025164069546, -1.9495060723540563, 0.15865962078488358, 0.053159129450799446, 0.6279700617759563, -0.9585438139374473, 0.010451773672657707, 0.36889062169760817, -0.3393075592248645, 1.3735837444741703, 0.5498461597162918, 0.6767261407662748, -1.9891703347713612, -1.705014374027962, 0.7588782653919169, 0.07560937389712082, -1.287688611061848, 1.4212222359746087, 1.60096712854802, -1.847191016172413, 0.17746782936804686, -0.2649476239197544, 0.39652019977907416, 1.1714189016045442, 0.9281057727247757, 1.7589717211531266, 0.5658028135117427, -1.0983279589189674, 0.3316442858920692, -1.3943634712960722, 0.1326978230605891, 1.4226394601739516, -1.1204825016470317, 0.4819056865741183, 0.6775229269544972, -0.1662677279536262, -0.575703966079512, 0.5786998065102378, -0.9083179321056406, -1.288054985269204, 2.017261492620565, 1.0237281230850985, -2.4643461738243753, 0.09179261392371386, -0.8445169134904013, -0.33223649318101856, -0.41451483589958554, -2.171707143843559, 1.256761505261948, -0.8901722733940816, 1.1814589214801925, -0.881427355524249, 0.9815961045390444, 1.873439309443258, -0.504351163774096, 0.5950951324014402, -0.6366298765744925, 1.0591282812063176, 1.5499438007708193, -1.8196259059852102, 2.0778825249400166, -0.9915790787417101, -0.14262822320362536, 0.29258965758565375, 1.371521251511444, 1.1941090028559287, -1.0352151675021104, 1.5564454006748731, 0.1364387523126783, -0.996702508974758, -1.3385850520773521, 0.6962607194685637, 0.19776732165655872, -1.5797020660293943, 0.5088568070232236, 1.514011513555201, 0.3480456336919141, -2.554329446601555, -1.0155472215584669, -0.7388509050878092, -2.0123302681119686, -0.3731888151906794, 1.9029087291360187, 1.2263376605126786, 0.390702783021826, -0.8609508748093702, 1.8451225383537777, 0.0511076478332899, 1.6217788634982004, -0.39478682654501923, -2.18461316723079, 0.908513530279777, -0.9953657965741413, 0.032357625502522046, -0.7339343130675137, 0.19153301490034116, -0.17500585691491147, 0.37412338274140144, 0.8748574319203892, -0.36760568100951585, 0.20779911892844463, -1.5308826534827595, 0.7177465465559875, 0.8814623965636144, 2.076185551660773, 0.753809153389059, -0.13627391912027448, -0.2941966983387511, 1.6188900858732314, 0.5019553921221781, 0.43997479816580576, 0.2883903417764834, 0.698610187049944, 2.1711922207816685, 0.543654147061845, -0.4595282043839144, 1.785668934660216, 2.4672773463347926, -1.0301901269253235, -0.15628333857210802, -0.009798989148321493, -0.21903588717522277, 0.5095623608349688, -1.1866041953785205, 0.665708519127795, -0.7088112821970485, -0.024567639390841358, -1.1286653157873099, 0.3517868653928262, -1.5138596860824807, 1.2514397761480034, 0.8894268055558822, 2.007744298660205, 1.1447455213591822, 1.7484087454923833, -0.11051858537089342, 1.4736870396200716, -0.4365291797835048, 1.464099445127763, -0.7977772839732397, 0.5488236970679784, 0.6939872174393475, 0.9145176989034588, 1.4656845708717838, -0.9871986024234815, 0.0475361138943912, 0.7651769205935218, 0.17243881439081163, -0.33927080174770907, -0.8791755213013622, 0.6352887241470904, -1.0651529140203213, 0.9745337646538481, -1.0140686793488805, -0.5592707927574635, 0.3531758193732525, 2.466686310830952, 0.03714511116101821, 1.0683725339229913, -1.5331830188689581, -0.004604223542886316, -1.0921965044566575, 0.27416060428152955, 1.1967050745076824, 1.4763229489167644, 0.23276963597579156, -0.599077270157256, -1.2431480589659796, -1.182642818544175, 0.48053049047012375, 1.9617844989759448, 0.614903281118218, 2.2906658045892327, 0.1246583115363269, 0.19479741325093128, -0.2237259362926204, -0.5834101174508887], [-1.3511148853511465, -0.03577627114687919, 0.01981271930406099, 1.3930356381636904, 0.7866086950456807, 0.7922660061919023, 1.0762428341634225, -0.9384189174125637, -1.5918511324609628, 0.8620628018838409, -0.7809669551018567, 0.5801359432890936, 1.0803892031695936, 1.1957289938874256, -0.9154119678928282, -0.2957194481556784, -0.5225968913124039, 0.003311322893546413, 0.09675696863646853, -0.17017218647090882, -0.7844242674316718, 0.9296367988411253, -0.12651503651357263, -0.22370192099799352, 0.5000649315970265, -0.6141603427985257, -0.63594066002796, -0.8205535055374409, -0.913208342983201, 0.25589093849277716, -0.8874498288168478, 0.1647824310729403, 0.6647805436974142, 0.46278143737140903, 0.19907181091500928, 1.967780550342259, -0.14416029676620384, 0.3676312055365429, -1.1907464699884989, -0.07620286150900987, 0.5824816979514151, 0.1225375171032778, -0.15365677410626113, -0.011870771634270309, 2.2097538728032413, 1.0483325221756639, 0.8921953730326101, -0.12160445303810745, 0.13025823719599947, 0.9039928423926551, -0.8143399284567422, -0.3657483365593281, 0.48298587441771207, 0.649092516732152, 0.16195229224500024, -0.1789158507925049, -0.9185926357275156, 0.5244911103668193, 1.4113428375823995, -2.424619005697236, 0.866739102887, -0.4589103609910779, 0.49826805479086694, 0.9392903303846522, -2.4873078307985286, 0.8502838496550151, 0.38920702775728, -0.7712352475979072, -0.45997580280095823, 0.08767635103853705, 1.1325871174738835, -1.5086950449253773, 1.0720109512440639, 1.151756785775581, -0.3279299497341395, -0.4112695434642274, -0.13411994693032128, 1.2593813784832304, -1.7039704620734948, 0.11748989397032594, -0.5733867248986656, 0.31902324690273165, -0.9935555591436268, -0.5295782492338512, 0.028490394851298673, -0.05689371774526068, -1.7181822880117679, 0.4343517240338619, -0.5787487551072283, 1.0627779011161653, 1.9577606765866775, -0.4845915869366466, 0.40014357767788383, 0.45776904271989577, -0.17136872092523794, -2.460436825016754, 1.5018577529524606, 1.387204147352951, -1.3903012933751764, -0.9425384890471885, -0.3218221307097746, 0.5969783695611856, -0.11107372346092907, 0.938008394521087, 1.0675623112442902, -0.144482360615693, -0.28460546075078086, -0.47266994261167866, -0.8979147427682603, -1.0901398528865436, 0.7417375949590271, -1.4194309807536918, 0.7736234427833008, -0.733537886168107, 2.378184103192367, -0.3384052863061878, 0.9512811105265291, -0.7641955949557592, 0.3345401606789361, -1.9022351485783697, -0.5680317829869499, 1.1973999033665543, 0.7860179674575414, -0.4458306251060255, 1.3309160561302227, 1.3322274586156868, -1.3040707307851542, -1.3598121873330924, 0.16931581564768572, -0.8346330979288472, -1.8003658899977806, -0.514273474174816, -0.7799783602183318, -1.814681538800902, -2.6533548148401023, 0.09644164891189787, -1.2544671788749966, -0.9455693881353988, 1.8272792720031326, -2.0196383015461135, -1.535611512066062, -1.098588321848167, 0.5799549170374929, 1.7933141316824275, 0.4375480748993916, 1.3676324892970015, -0.5575072298715266, 1.442529141353536, -0.9618544614767357, 0.7102629160582535, -0.7040657666444398, -0.7983086267640039, 1.3487529910936464, 1.4415333344024286, -1.2513104886101485, -0.1332779525662878, 0.5739045252121953, -0.8302702063497538, -0.3441029118113254, -1.5317470711474157, -0.3791480542468281, 1.2505020087155603, 0.5991990528451405, -2.0808025539974784, -0.2962675342044732, -0.3860188441829454, -0.6707283486904834, -1.2296248201662692, -0.8279972084319339, 0.9420727201619227, -0.8786811193863878, 0.048252549052743704, 1.1324218802704205, -0.06016372284278748, 0.8347027724859145, 0.04866084267534353, -0.10683756494422328, 0.9917104856644194, -0.6686722931341845, 1.7418188374001824, 1.8528998110771464, 1.5765550849026624, 2.173193636826363, -0.7179478677481059, 0.6824621197319571, 0.060349311866356434, -0.38818163046731147, -1.4931662726260793, 0.22490486366667084, -1.4147856862563764, 0.03455675131041676, -0.3814246403897068, 1.0504311205863621, 1.3786868127353344, -1.4452520690677584, 0.16040999426310823, -0.5200726592367503, 3.4341528801910153, 0.4270688531057386, 1.2675268621701952, -0.07565724248079517, 0.5434038847691275, 0.5526195327567609, -0.664612948678604, 0.955426236812721, 0.384989689735019, 0.8953424351283216, 0.7505952180179376, 0.3571341783347917, 0.4327833519305958, 0.33657662064781785, 0.656992890031805, 0.36797391142011143, 2.3065805297325004, 0.9044431935246994, -0.29885399222460124, -2.37561260762331, -1.565089207837386, -0.793965168367394, -0.7410667652524258, -0.3144697975418891, 2.1490981840482135, 0.15636608676066024, 0.9978914259906396, -0.520815399052759, 0.32795786213484973, 0.31014297669302315, -0.945365461423295, -1.3836804681854258, -0.3788578281912751, -0.5764785874130811, 0.2917307812168529, 0.37292888957748715, 1.2273873915499371, 0.7675412698154879, 0.5786052329099103, 1.434740878654249, 1.1351788094207458, 0.0544979924371165, -0.526046670468007, 1.798377472960209, 0.2506121552636625, 0.11417333700979668, 0.812187031683631, -0.6327745851935386, 1.3536470949184582, -1.0026845612447333, -0.0442200567521189, 0.4706277808390051, -0.32577007551607473, -0.024936355292297055, -0.5114096243824918, 0.0046883237661970245, 0.2750850373469903, 0.2670928446877904, -1.7068173611800093, -0.15651828997395034, -1.3577737986313572, -0.12606980326482606, -2.369452652985782, 0.11248555561372739, 1.528325623581559, -0.9622812532225546, -0.2546829304773167, 0.5827341486445663, 0.3470265618273964, 0.4282173388881966, 0.4970175623243109, 0.8275085432699697, 2.6601181915624252, -1.9727798783996031, -0.6886154184210123, -0.46057705911481517, -0.8125305150345404, -0.8634319101219906, 0.14494279434907825, -0.8592712679536089, 0.8672234087887175, 1.62021172166566, 0.8317703385974234, 1.5611198801629471, 1.7628563168268303, 0.260427417905182, 0.15744448311859663, 0.5859891303182957, -0.9047819174578515, -0.6354940236114123, 0.4294089255651759, -0.2521390888645876, -0.11753388724351226, -1.2219595575154505, 0.30390589326413103, -1.5435152820862224, -0.00036788790516972234, 1.2256691420839494, 0.9049227060979816, 1.7419276722028254, -0.642638832925068, -1.8393765995353422, 0.7259906567582937, -1.4818404425390832, 1.2672737210498295, 1.8587618560033292, -0.1364386392546617, 3.444927127993827, 1.7430575079929755, 1.1568928882907792, 1.488467753795469, -0.45190861498000634, -0.6221416692071224, 2.9044903711953673, -1.495852482379256, -1.0308971173510897, 0.34370195242948237, 0.38572304132911084, 1.900636522939108, -0.010513184986647257, 0.04829372946809237, 0.1910360287175142, 1.2783483922076113, 0.8858823383276981, 0.36064682135242326, 0.8505462675439417, 0.9986163895874852, -0.8245511315827054, -1.0080337750901132, -0.7161288035529582, -0.515051220984279, -1.8446975577190339, -1.3500380477401832, 1.0973234163784868, 1.8396710505519807, 0.6379012870220098, 0.3736604038020876, 1.3722632173715588, -0.7905566274650071, -0.41847020874664465, -0.05276821131622852, -1.8513183339668289, 0.07600427328553018, 1.5374094090226542, 0.47951302436773247, 0.6927258720184443, -0.8345757208254752, -0.17142237411876463, -0.19155763976712742, 1.6404581074264695, 0.6121621697752059, -0.2266597688029561, 1.3257999763110526, -0.6025149769686233, 0.3533472139781222, 0.34451326528963655, -2.4791908344088958, -1.189255537820291, 1.5092241275563234, 0.8481231357736457, -0.9602614752191553, 0.32035509891387426, 0.4834224170532649, 0.182606212494539, 0.5578540201433809, 1.0724367611342414, -0.06978384380046855, -1.0380641754885638, -0.21186874532496633, 0.9855565492204429, 0.6484293274522298, -0.6268975550605767, 1.0765416416774256, 0.1754968317722992, 0.4888231973051254, 0.7901140443156246, 1.112518160563295, -0.06886149491033079, 0.1864934543347647, -1.7649001890883127, 0.6460541733704184, 0.005134708581194679, -0.4722746592556197, 0.6155058460055203, 0.6129318999812157, -0.038093618933757734, -1.1285367474743992, 0.2802581229681628, -0.1453699373311159, 0.2774458240512345, 1.661680547916208, 0.2850695055315331, 0.3537546284208956, 2.2296002763392404, 0.07011456105813003, -0.7121237481429639, -1.3154350320224377, -0.02789864265989881, 1.0921783233313136, -1.383346947936946, -1.041568730209083, 1.9742639540889424, -1.9198278876197026, -1.1578758038307944, 0.1848282112857294, 1.9419560702307657, -0.3434645698679942, -0.6436020680618124, 2.362481255850624, 0.1222980191105173, 0.10554960133088323, -1.675290794131991, -2.097859826023855, 0.3452947857198796, 1.4091901718173425, 0.6756848554525927, 2.5549854438422663, -0.240631395106811, 0.05280349224506475, 1.1257462269036504, -1.0573253938249718, -0.9205938821025066, 0.5812237227007967, 0.31993713821467323, -0.8342898020795372, 0.052933240511048564, -1.0392210329133718, 0.2818022562389494, 0.34859943786954933, 1.545269622468439, -0.8095532215731823, 0.5028870177949339, -0.18148756287701007, -0.6867614363891321, 0.12085545611228597, -0.029085933931947933, 0.170572269705262, -0.30522176800093065, -1.0486472520346917, 0.29246650874948726, 1.006254016545672, 0.2248000186934091, 0.12912619869125735, 2.659224795079768, 0.5609379869048118, 0.08493276639550584, 0.9361229545089615, 0.3099443038154033, -0.005423509524286267, -1.3100276757406566, 0.6113444758174743, -2.7697621358193767, 0.06128246461188387, -0.581131294776606, 0.21924366610040333, -2.167793827110192, 0.8563400394051499, 1.7327393593450404, -0.6841047847003283, -2.143371154423453, 1.413752203780429, -0.5852361137075479, -0.1392742905526506, -1.375024079786459, -0.5948125754466791, -0.14101739051846876, -0.3159662514244821, -0.6874258270776036, 0.8455285774959749, 1.0341659532016156, -0.23711972161171516, -1.500739364182057, 0.459298696611408, 0.13633019389347797, 0.2217276212292567, 0.1384360399632977, 0.4234800590682269, 0.169845705601229, -0.5227840470204422, -0.078436020647916, -1.1221728191302458, 0.9229392124076621, -1.3139567166428017, 1.0607083190816389, 0.21966869322974777, 0.7840407995849297, 0.7676642456114131, 0.2744730488697122, -0.08161406223821725, 0.5865380327748826, -0.5773941635006077, -1.9596862510454576, -0.9659777557125439, 0.13582618870421373, 0.16350130061625687, -1.0373160186779233, -0.4801971354406209, 1.4904521657974918, 0.8313363695428949, -0.42119466462149774, 0.19694582234081998, 1.0784715311931852, -0.3016984257528613, -0.8858315765196595, 1.0161017791747016, 0.30315574772349846, -0.2598863245121188, 1.1480041204113889, -1.4714677488454666, 0.04622812802415616, -1.987447270078297, -1.6900966996587163, 0.29206361969111777, -0.3167658330988736, 1.6530058579779465, 0.24934361883532954, -1.2412581599840586, -2.649357498237773, -0.8552298751183839, -0.05589614935876163, 1.1942432461590686, 1.188679502926229, -0.539809371563003, -0.3885600797675714, -0.7309099842128247, 0.3703449959247392, -0.7019533354275299, -0.9378330691178496, -0.9224723602409065, -0.4890208240643447, -1.7981673261197595, -1.287599152876283, 1.0914742854522148, 1.160060395347019, 1.369253849837931, -1.061262797662137, -0.43002056727587273, -1.442014607508564, -0.8471946276747642, -0.8399864064365724, -0.32066541059523485, -0.4663805185988428, 0.4552197099735994, 0.954151283867139, -0.12488134118727166, -1.4674702187053354, -1.5445833711164174, 0.22925792034768253, 0.22118343549689107, 0.2561738785896786, -1.3278083583011682, 0.5145710705735288, 0.6385596042827103, -1.054410815700965, -0.42045333047984734, -0.13559798924138353, -0.6670637238276581, -0.9671855452571761, -0.3729284955657605, -0.9350906249402474, -0.4087411733332793, 0.2961781961991165, 0.8273408582801937, -0.9900453106225034, -0.07338431933834298, 0.3619952304388401, -1.0132678771394157, -0.3829844378996297, -0.20290784508897122, 0.20790601904631253, -0.39344000166858173, 0.3480036176996256, -1.050962700897079, -0.9032923679890583, 1.121466692710121, -0.201193123768751, -0.24186248419863085, 0.8128594417906075, -0.2172679366538998, 0.44308406548174295, 0.6805168309085732, -0.08946670400396205, -0.5488218487668877, 0.638176348110953, -1.2925626907741208, 0.37113949831283993, -1.8639351057239935, 0.40127516580764455, -1.3587920604537362, 0.01133454846519653, 1.2776165967421558, -0.8969257171799395, -0.030471773960897, 0.40554956044568147, 1.0040936820378024, 0.3391834979543283, -0.915855868092125, -0.8662320810323783, -0.08418715606264365, 1.2467209923676996, 0.18785709108420562, 0.9550954133080173, -0.35228436449235506, -0.07660605050827542, 0.05793686406905991, 0.38042992196142816, 1.6397472617864104, -2.459850353423147, -0.18902896219051568, 0.42958104380662493, -2.1048090913512287, -0.10517046279834188, 0.32000066370729113, -1.3697877225839614, -0.6451092555131039, 0.3080872865393908, -0.7416736778543809, -0.07100865839596034, 0.560400975802314, 0.12272701342760407, -2.077124631786362, 0.6787529811449224, -0.8889841446036635, -0.2201687052293354, 1.3191050405016025, -0.8023735002880117, -0.21919430525411102, 0.5867634362898527, 0.6001513529066405, -1.0304292998470133, 0.0747070101850788, 1.0105865613979883, -1.0349332824129984, 1.1424961200803287, -0.9124652557016107, -0.1520993085106227, -0.17278662215358045, -0.3521055994443541, 1.3551734305977037, -0.23968036586518018, 0.007597981462610658, 0.7471184266076646, 1.8607858600547595, 1.4120677923131197, -0.06121962372161676, 0.22982608554047482, 0.663626161797857, -0.9128023042454129, -1.306127645936952, 0.7426227809898047, -0.029944699531691207, -0.15328467137811172, -1.319038324749702, -0.9297001543211966, 0.7141417978211195, 1.3873848136971012, 2.0517723341291885, -0.142673334404917, -2.420449889531771, -0.5447498434837322, 2.761530463311358, -0.8688865960604244, 0.6211773045874854, 0.19326822095293206, -1.362166339847623, 0.054688786659941285, 0.5410759593558284, -1.060523965396478, -0.9475378009003139, -0.8928768193123886, -0.5501479296960675, -1.0691636179157704, -0.7548045694661786, -0.3759881294481229, -0.7802713825535393, -0.9144650880582663, 0.4676112549520768, 0.31883861314181056, 0.28172832949571686, 0.97396964812735, 1.784020452945355, 0.9309510330199272, 0.49391593608811935, -0.6439055006908357, -0.35386143020839395, -0.4097258766812353, 0.354922223846054, 0.607744089983446, -1.503023408139377, 0.9334027449137972, 0.8663489025384347, -0.08827932900792697, 2.107020889378706, -0.9746342533690525, -0.8446702890011977, -1.9955033715797064, 0.3316378777824152, -0.5812540326287639, 1.2560135676388482, -0.9601389763471058, -0.48578309298514877, -0.6015959208943864, -0.2184080710423544, -1.6273751983243443, -0.9599835854579944, 1.06035969626107, 0.07029354933262782, 0.4291060262752139, -0.47987067327590865, -0.22745411606197946, 0.47160394176649956, -0.4350658074910183, 1.6054291486294399, -0.012629224155750015, 2.5039986092468136, 0.043804015060181556, -2.059499237306307, -0.9705983786955269, 1.055232318408065, -0.42863580496379344, 1.492931482740729, -0.6262999721475402, 0.10751106063200633, -0.6765697470203555, -1.0841397604744825, 0.4762662118148483, -1.559196957117664, -0.42618163842328627, -0.8831840490284711, 0.6772780554869492, 0.36735788795604113, 1.0196840196203272, 0.0698500043105077, 0.2675021432674904, 0.5711304447646686, 1.7264809104933798, -1.5052022125858797, 0.3942594520451201, -0.8183110479359038, 1.1906842297342908, -0.5787234135501287, -0.8880287266835297, -1.4916191260355371, 0.8421964193437391, -0.39322333283171584, -0.4229841846430854, 0.3250204955520522, -1.3725135043040295, -0.016849646215515112, 0.40377107911873106, 1.6072466913003143, 0.13933979913596656, 1.372034687103654, 0.612165452069001, 0.029934164017899747, -1.9318737337677634, -0.5150240710258492, -0.06613041313544137, 1.5760802360833452, -1.1128811450503375, 1.2123900210014478, 0.3519646242452644, -1.5257283485005468, 0.33887999590728063, -0.05050964985134848, -1.7521293039801393, -0.31241005400048033, 1.046233933873046, 0.1557137594540169, 0.6940588218632915, -0.23119015668623344, 1.8598610135506455, -0.11689480041906321, 0.03274950364961618, -1.6152646216235018, 0.22529598413396013, -1.0603018218374853, 1.7932116617561413, -0.7238109029485381, 0.09202799194742987, -0.8166946769899468, -0.15665217967686249, 0.3449703937925853, -1.7894648970133524, 0.4345587049977862, 0.5746978995276215, 0.35670863762656335], [-0.1808373670203393, 0.2511470198533339, -1.373865179595458, 0.595970526031488, 0.957255503440653, 0.4675163675078938, -0.26164086694914995, 0.4487398573553732, 0.6759903809110052, 2.561716477038143, -0.600125031352626, 0.8569422957840966, -0.4511982421631387, 0.31423462250116074, -0.41222412124389257, -0.4543132001038114, -0.5603377683016222, -1.6700140972841568, 1.2025999459187813, -0.7625269402570295, 0.80350586410918, -1.8105582347575218, 0.924870240386839, 0.9333415258058906, -0.6657422500524448, -0.5878778637210453, 0.6056381085909038, -2.3393148019784196, -0.7669248411408757, 0.8459035504768023, 3.1178236554298673, -0.31132406061962964, 0.5966868428737758, -0.40583454891282666, -0.17875193098370562, -0.6914375521885622, -0.4084660911060789, 0.9011067868852033, -1.260766340974169, -0.912137734423296, 0.5171288610237498, 1.5038448121558954, 1.0230077049804827, -1.0827159626055687, -0.6962617252121683, 0.15204934512200552, 0.23327607940742612, -1.2829934060390011, -0.289041297693534, 0.4648511229988387, 0.25152722262263066, -0.45084989968694944, 0.13948533449982797, -0.3646049232902439, -1.8062282845170583, -0.5629104441138372, 1.0910223506486574, -0.31856080493792915, -0.7859184613367555, -0.1759988109388158, -1.1911975424839922, -2.9286021304032697, -2.054414060314384, -0.23654121200975914, 1.1012194254741707, -1.457570600247288, -1.0746639799630466, -1.7645359276659296, -1.9838487754973504, -1.1049662767460906, -0.16003573271624721, -1.2975320103454768, -2.2255807044759686, -0.029549274321519367, -1.0401948760581634, 0.25422323419418674, -0.7401734344505955, -0.6851103045614844, -0.2773959845720317, 0.5979932555591713, 0.7041240680269424, -1.2058615453939023, 0.025846720386334524, 0.7349221470383116, -0.9977556076389167, -0.4817109348221123, 1.8315525492414775, -0.1622777884899005, 0.3702087288559028, 0.9990651797670774, 1.388593554364037, -1.1870770705858829, -0.5254208581071197, -1.132723279739634, -1.1800431079228721, -0.5206415213118484, -1.8183309588177718, -2.105135763944453, 0.6791629589069499, -1.0905851731547793, 0.3721167315066675, 0.3217970782860991, -1.6103574102847222, -0.24818904059037092, -2.419627325899086, -1.9837826425817586, -0.4383032148152915, 0.577512706216107, 0.6057170905175756, -1.2163573261143856, 0.4460285317869047, 0.0722738969607214, 0.11834652915383546, 0.26447226296158505, 0.9450392033231616, -0.9621717106055764, 0.5427435167545248, -1.143160277705046, -1.6827467856734675, -0.9666942222615201, -0.512012539163104, 0.028209464322868617, -0.5275024935229073, -0.3671824062254652, -0.6407562018944759, -1.1576314233985738, -0.32463069957949464, 0.9183191743743808, 1.4603207041211046, 0.4967813580346849, 0.9959776991588271, -1.23496296590107, -0.3039152006043766, -1.1413412601559234, -0.35744386096252084, -0.5957306528739877, -1.0935582241675577, -1.1199129321735266, 0.32929045151915837, -0.5749746554402118, 2.2080245237492586, -1.6261500010440242, 0.48175408887077614, 0.5158899173253196, -0.43630624196022255, -1.2511140690737008, -0.02829581604668654, -0.7156778561016994, 1.1628814938834475, 0.044040113313447475, -0.8880679026674351, 0.4661544293930248, 0.36243439922077136, -2.226910444777113, 1.2812557326251002, 0.5788565061480738, -0.8025463159568015, 0.044346998433894544, -0.4350034600135832, 0.8578718707966846, -1.211229761097955, -0.18006520054480107, 0.7226576895786985, 1.2548388593900794, 0.4817543945066304, -2.276567752694389, -1.7705208729463735, -1.8662605811974116, -1.2422030051101152, -0.7336418353497665, 0.8033783851736295, 0.4653468431566631, -0.7671973779148528, -1.7083365322278434, -1.1128536093883572, -0.47996322348002046, 1.6396316749363251, -0.8345162226636121, 0.0380994947783889, -0.18407981049362196, -0.9083457376379849, -0.15111002959093714, 0.1322420600746457, -0.19416120791253375, -1.4320331591206952, 0.025847593331012497, -0.4497765405308544, -0.4785625140917425, -0.8021380918053757, 0.053840083153473745, -0.34780617305441985, 2.3429258414393366, 0.4923386455141005, -0.5601929507845311, 0.4761607674667135, -2.7337554474916255, 1.7341082624187267, -0.35067792511387613, -0.3070622952152635, -0.9116439866049868, 0.06632694979196915, 1.037504800058058, 0.14776682528384227, -1.7435219083180955, -0.8832488156429706, 0.40494583356088465, -0.6702149309010293, 0.8415138231761332, 0.3370930961618791, -1.1622122462630693, -0.31213899770503817, -1.1752705403497188, 1.4496064414358438, -1.246769668816331, 0.29543591809129394, -0.665540310565786, 0.9286675263335847, 1.1123826664015917, -1.1867422550793831, 0.9029723040485287, -0.3630051962193685, -1.8973870526144283, 1.096615482460914, -0.19081138131053746, 0.9794322141500886, -1.112515665277857, -0.07812918827527289, -2.1551441930598663, -0.5208380352011079, 0.6143007214714761, 2.062476619215051, -0.46663219364922065, -1.9949862892239858, 1.850377195299383, -0.32171174791724916, 0.539970138330064, -2.096190918808196, -1.352700934567035, -1.7310338570835322, -0.4864101574557368, -0.0844447744681621, -0.013419872940333328, -0.44017897128401473, 0.8499520136306405, 0.5298149380888972, -0.27417120987232585, 1.5499230630516554, 1.4999013690303813, -1.049306637749303, 1.4590486982201698, 0.037135221627091784, 1.1931901819344601, -0.18157241391971193, 0.43850899818613603, 3.199008788197307, -0.31351831649898426, -0.5634471485964826, 1.2324493090363278, -1.0235834594818127, 0.9506412919386874, -0.9014975304861292, -0.426028683325189, -0.16871405409112003, -0.035799555959531104, 0.8404694906658975, -0.4601911837632827, -0.7136508744623599, 0.5948998802189864, 0.330256751158962, 1.5241224183155655, 1.0871214182574283, -0.09484898082044621, 0.8551214696144442, 1.6663999894106465, 1.7352307968995127, 1.0703724327124764, 2.204347134637272, 1.3028022229698124, 0.680942927042023, -0.30130409224474536, -1.257975237747564, 1.3332026885081725, 0.07259810116903066, -1.4889504686530466, -1.1284788714985932, -0.7744406360023663, 0.17317452684339904, 0.5771903395859114, -0.45386749525497955, 0.4796062556787798, 1.1588489106483069, 0.048552464624575, 0.4202943202094494, -0.4020896239173953, 0.28590266304183704, 0.7342940505691286, -0.49552290265603566, 2.6707402049688045, 1.1264198374320677, 0.6717565861157531, 1.1257111647355766, 1.1333582176525285, 0.6806651712695239, -1.1530469256317923, 0.34276506015625297, 0.2525477798791912, -0.44904548417227774, -1.549925906355447, -0.696252193467394, 0.6821885695756522, 1.1292600927209966, -1.717996690695427, -0.5773518851853611, -0.6418129589957995, -0.18351219528247562, 0.2436799590056124, 1.7337300400116542, 0.29365368592671676, -0.43177495008978656, 1.6591875646438954, 1.5090975880724358, 0.7004330882424836, -0.36660224777314865, 1.0690774716832712, -0.8240483030954469, 0.6877461006381785, 1.7293525481691403, 1.2290036854859576, 0.8674559428951194, -0.8020169721274943, 0.9723173798421748, 1.4065513896004411, -1.348372393800227, -0.11887638087850508, -0.2816989652564233, 0.7294091211016884, -0.8822804029532699, -0.802088016516945, 0.850971302460435, -1.389502713240735, -1.3446853816313549, 1.1031581657696685, 1.0755105928797806, 0.34325034881415933, -0.421635035294187, -0.4628157480418472, 0.613342492333139, -0.6909704306723115, 1.9444203249826804, 0.07296352769761551, 0.6951634864625086, 0.14701366042274233, -1.5323458941750328, 0.9571723812648194, -1.1349003508575397, -0.361420054412815, 1.5510699268296244, 0.25748457395386654, -0.7215271864566491, 0.3296371290778457, -0.6202122388301673, -0.6204843401834558, -1.548661681939771, 1.4453816058908593, 0.5432763646374602, -0.055834531678176785, -1.0449073597038658, -0.5475337286493139, 0.8261627787527829, -1.404793987528899, 1.0768681871573471, -0.870636623009563, 0.020229837962630143, -0.7846950968952969, 1.2346941772825792, 0.3639895890612032, 0.558001820731088, 0.3099818104096337, -2.33052277450962, -0.2959627448673216, 0.7847180864924138, -0.8888775278663815, 0.2829324827963763, 0.5104049964806757, 1.2594021223153617, -0.6007225391477505, -1.3941586740414291, 1.6883023464253792, -0.4884371991869157, 0.246938182112916, -0.10319900146718455, 0.1635578056999449, 0.9907401712426535, -0.002199378127728041, 0.32558571226140204, -0.8844566321273379, 0.5589323554630966, 0.47648542921698706, 0.524455219957684, -0.9973641526128595, 0.5922214707809514, -0.026774263694298757, -0.11198990031976817, -0.33555366383090185, 1.1054102636368435, 0.05449377709659971, 0.5445152841479203, 0.04175721568549141, -1.218327384865546, -0.4243193892067595, -1.1562034938786947, 1.1986414788318982, 2.187087879145228, 0.9646102574855515, -0.2703694169933735, -0.272977637663126, -0.3552853606445584, 1.8833163105842594, -1.1685236593128288, -0.7447378101577057, -0.7839555418639296, -0.6899210099731938, -0.47667112300301656, -0.5580315996142861, 0.46837170053261656, -0.09822394574175915, 1.2176925688506346, 1.3914637009968178, 1.0627276214192112, 1.1388679833595712, -0.1997124513085698, -0.9986870618704365, -0.5872803383662077, 1.058732410077254, -0.7337371206558309, -0.5023178882558578, 0.6169558775508852, -0.2500146071626744, 1.7493250916624214, -0.36207319167005914, 1.00566610799059, -2.345254788047484, 2.4887224808145003, -0.8191518641673682, 0.8388930759503013, -0.9136401949251217, -0.8205657817515583, 0.665222786208599, -0.18293278009874694, 0.20921941539422648, -0.6010689731254326, -0.8308083450474031, -1.0739172707635796, 0.2151367527563028, 0.6231849210824163, 2.2256027432899055, -0.15476681821657853, -1.1630718871352872, 1.795849313129715, 0.4917344631677452, -0.8245231753271134, 0.7650094890747139, -1.0765301240060496, 1.1137804535885536, 0.04228286263099984, 0.1423547867057742, -0.7007631696192088, -0.8801346433926371, -0.24431805160485895, -0.6915544375578718, -0.730712181621972, 0.4569302280118049, 1.5474639777298644, -0.7736217151473695, -1.7277754373628704, 0.8191352421474598, 0.5667267681846773, -1.434357943611468, 0.8700832983793748, -0.3398094113580836, -0.9998826824589993, 0.24089686754900042, 0.9088754248594385, 1.4053578130013304, -0.9571828603799017, 0.09468015732184248, 1.063238670772314, 0.4552679483601633, 0.7767270068699864, 0.057417819287231206, 2.9486270331340143, 0.1274577027191763, 0.06602163319458092, 0.674345909117404, 1.249529898939786, -0.019559117718469632, 0.1557787111591276, -0.31637683724724475, -0.04618181340558357, 0.6496614701519525, 0.5424940424417725, -0.5800579419095445, 0.3920120718073581, 1.588846037585141, -1.2388399675624728, -0.1080811966869319, -1.574341841110012, 1.4684883156041075, -0.9617369597844856, 1.4243030108482564, 0.5714611118113506, -1.6872232211510283, -0.23290731676732032, 0.6751542356693616, 1.287830441018444, 0.525052260185607, 0.663932722383622, -1.7781495795647426, 0.23777338421539515, -1.072635780617979, -0.8398144634676733, -1.8966773524045206, -1.2476053902220063, 0.846029483976143, -0.15107568695545, -1.5791916112914604, 0.29908040471728775, -1.2063734329384512, 1.1058533218417856, 0.506082428149497, -0.31648576494380665, 0.3319397017139543, -0.9833733249644924, 0.27675721713007917, 0.24320221618085625, 0.04231124117900667, -1.2186028398513158, -0.34499727554794635, -0.03911865107001964, 2.242192574833152, 0.25052696522943035, -0.10466257171579862, 0.26726725483530955, -0.09632142518116196, 2.1651059287703025, 0.5641366901045071, 1.5692358491788538, 0.23695285075658107, 0.8720246622920526, 0.9549939510882661, -1.9826298434464, -0.4272156638085506, 0.02190748450503265, -0.6430344953180211, -1.4317786736061657, -0.0384676416590582, 1.0340769942568033, 0.726455171746979, 0.8704038698126599, 1.256961525709329, -0.542639012426063, -0.48733212213597776, -0.20377974550565503, 2.0268158895836152, -0.3474162963529515, 0.41327742757227526, -0.8429802567341405, -1.0632432277256654, 0.3316351388472359, -0.05018506803310223, -0.7470299489564295, -0.018382631568059075, -2.037179253808024, -1.7002582797610262, -0.05872655847349791, 0.06295226377994016, -0.5973117641689224, -1.4377241054639045, -0.4999371565243914, 0.11651246924499302, -0.3456349187561678, 0.3023041540408591, 1.2525916426201722, 2.0589452709806864, 0.34533072768191136, 0.6612422241366384, 0.20260191770075703, -0.6572012481869502, 0.02218791114878833, -0.9470530699013155, 0.2900529060289242, -2.7753448640545106, -0.10834801003920158, 0.15172156213657348, 0.22057403941056514, -0.1227597970521469, -1.7138929099509708, 0.45000849007531896, 0.8764467235479935, -0.2915911379910737, 1.5598582768336595, 0.29668698455458103, -2.4772259500230134, -0.020547854127456796, -1.0529806267256583, 2.2145482216635703, 0.850890828327329, -0.541798295281492, -0.7699254358669656, 0.4397401166607626, 1.3624617175750644, 1.072659684624168, 0.07859004220526257, -0.16370957306939962, 0.22299721099241365, -0.367802249106546, 1.0795463423604725, -0.08577289144467533, -1.004869485443945, 0.12254797600131243, -0.10007149972222054, 0.18383430209215063, 0.3291730605972492, -1.263927716335643, -0.4743469624496752, -0.6380600745783368, -0.45812197608495636, -0.036575785628034346, 0.0645085552256782, 0.2720225726311125, -0.504449277156344, -0.18654925457426008, 1.455583399358759, 0.9519572094700707, 0.1232670261809253, 0.6736903921835421, 0.10883248887954047, -0.9228679339881241, 0.7009716197526775, 0.7778469927613847, -0.159855921199784, -1.196017229187754, -1.4702404261067759, -0.8650466190235925, -0.49644213661629966, 0.7564321466571448, -0.6660550954778466, -1.541502708280204, -1.3690159864443783, -1.1529704891672012, -1.8305305106690783, -0.0791904796059463, -2.0968962685714763, -1.2204912867079838, -0.24204005417646135, -0.8562071416502607, 0.4072157143131968, -1.4538443818453084, 0.8800404598924517, -1.44089430080676, -0.2603628736869185, 0.6040336522284352, -0.557796098988981, -0.8930602005852379, -0.37014659913398557, 1.2148052513211505, 0.6433937220800502, -1.9751428358316334, 0.6393169637113315, 0.42484416491236787, 0.4606023829432054, -1.7048697984397934, 0.10137324765705512, -0.4871960848684018, 2.1735853871486657, -3.274003374569241, -0.5067585006337946, 1.6278472586230883, -0.7813272106066516, -0.8908237322711446, -1.29083525341367, -1.0736826826048902, 0.11205025778918701, -1.2742277442642753, -0.3002440441185168, -0.14419658361374843, 0.12871998676996754, -0.5461481370959261, -0.028929210899431214, -0.26327836296405027, -0.7702299002165687, -0.5241907609228418, -0.136061520354164, -2.0029238015929782, -2.59944308078008, 0.5844803539415337, 0.27366151647690107, -1.3499425129070683, -0.014857194593207038, -1.424986733305708, -1.2801366346613046, -0.6176869900163745, 0.2284843455501138, 0.13567090937668244, 0.8755363562243391, -0.42262733398588004, -0.3626230486559453, -0.1606122997783718, -1.6896847187690236, 0.12539106843773382, 0.7497847959346245, -1.7301647168506633, -1.167954213388362, 0.19002925592918768, -0.8924227181414264, 0.08496651752364963, -2.149948008629375, -0.2759667079400164, 0.1621373042569756, -1.2209192305159413, -0.881046375702853, -1.5031277594615102, -1.3083694648947632, -1.3979069465711742, -0.2721439840809155, 0.20248247125417038, -0.31140810137860175, -1.1336752367633438, -0.565306689514784, -0.017485772140378355, 0.0034931581257074567, 1.1186488255192497, -0.9206739893699771, -1.861613931164948, -0.4757494012065677, -0.36711414661382324, 0.6288148682287124, 1.08895755485278, -1.0044144332846277, -1.8169490996160356, 0.2599818593581824, -0.2705074283862071, -0.5078616242568383, -0.979637841594923, 0.43089542063290975, -2.5486808878111376, -0.1699181140885392, -1.8805915570623672, 1.6108661927527703, -1.5483860425645866, -0.2611812685051819, -0.33753664182523047, -0.2740680710566614, 0.6015403182427455, -1.0353811853702357, -0.4648739671320939, 0.08295828483662987, 0.46106686480900544, -0.289413964886298, 0.8010266813664224, -0.11029303621100034, -0.3859761427122144, -0.6959724013241001, -0.28297146869366563, -0.723659663361943, -0.839262761699965, -0.869771409551573, 0.279750469755793, 0.35877050234741614, 0.909441420834508, 0.3804663404494805, 0.5257072850450236, 0.2121558096160702, -1.3867401598427014, 1.5238716509516272, 0.9977483637183525, 0.36794165909404464, -0.5493624093594571, -0.6512673862174242, 1.1116073399229915, 1.8519106200876696, 0.42861585372336614, 1.0259441526890547, -0.3960710056065872], [-0.9091334925289273, 1.0419885601306687, 0.4341170734307234, 0.9852456821685465, 0.7300222251673001, -0.12449256021853242, 1.5506434222340966, 0.22503903295518213, -0.4893196308506395, 1.0130484527841555, 1.7703085191705266, 0.15221447682434056, -0.05955972223766375, -0.17991698693379207, -0.2656640699356408, 1.7140772102637336, 1.925121046119346, -0.7668989232188843, 0.17339275245933478, 0.285583642170263, -0.13767662904722058, 0.10863873099871818, -1.0093457689822936, -0.43674665080586417, 1.6685145220055038, -1.3370336312330604, -0.5018194558173444, -0.2425027495425816, 0.9354022306400454, 1.7039429503217813, 0.9468172579132649, -0.5277904915069778, -2.0163726679829233, -0.6952185330574, 2.8074501271302705, -1.1596454426852385, -0.2066399798501062, 0.8951437540901055, -1.4226453831527228, -0.8203195581740735, 0.12183602155555208, 0.9800169262432291, 0.28760748462193964, 0.20399154658551563, -1.7873240879063361, 0.27417828645711406, 1.5226871841943934, 0.3293963575824925, -0.19809618301238707, 1.9130039239093408, -0.01592940603785692, 0.15352201030907786, 1.0228791543647107, -0.9839462303229405, 1.085017796302915, 1.1300610904544681, -1.8027081558757145, -0.5173261910033442, 1.893505246447039, 0.6633238286540033, 0.6783466302585548, 1.2213388728809231, 0.09015703870826615, -0.1938452876574193, -0.4551228405605555, 0.31346999859541463, 0.4253513523502915, -1.9628771337590036, -0.8294285061539031, -0.3742681490096521, 1.3516309848749737, 1.530108097652685, 1.2239002128521945, 0.26535460635881847, -0.15341480134444263, 0.8861696177016857, 0.6160771853875112, 1.2479701413722386, 0.17412413964005366, -0.48526994426351566, -0.07335791899831574, -1.6728462897368936, -0.7317117236827206, 0.8073056048386722, 1.8989401077445045, 0.6229962822486598, 0.9077172668183678, -0.16283560604822658, 1.6232500149391411, -0.35857331419145605, 1.2504801807684605, -0.15877230850229326, 2.576613663676372, 0.544795553321255, 1.3401293491070705, -0.2974749681685787, 1.1584632481320798, -1.116338075851241, -0.9586581197217325, -0.2017043423037078, 0.9737719366051417, 0.3304236839210053, 1.3082304600525636, 1.1980666441334085, 1.5663967887337895, -0.8716000758089432, 1.0298270534976939, 1.0360471661064898, 0.6623638359442646, 0.2925391732381912, 0.29563541391122294, -0.19309397944322118, -1.0484630682437568, 0.28119933887194026, 2.003653205100215, 0.5575232854262699, 1.383787483940201, -0.002122377219638347, 1.6367663528441307, -0.4623085967727629, -1.84220929410872, 0.04240079728009081, -0.9941791550863647, -1.0143630042452232, -0.3011355665474339, -0.8038508380690871, -0.7710101027176229, -0.5206035107435416, -0.8499823820372252, -0.3329891835966988, 1.4403533001717124, -1.9959789295439674, 0.5250292899129371, -0.8293517981849143, -0.02621967861946053, -0.21747626228935607, -1.6970952661302463, 0.043867118341062515, 0.5476757820905017, -0.2600473981156414, 